~o
<STREAMINFO> 1 39
<VECSIZE> 39<NULLD><MFCC_D_A_Z_0><DIAGC>
~h "b"
<BEGINHMM>
<NUMSTATES> 5
<STATE> 2
<NUMMIXES> 17
<MIXTURE> 1 4.444540e-02
<MEAN> 39
 -8.039927e+00 5.593773e+00 1.415050e+00 1.047087e+01 7.472276e+00 6.648811e+00 5.368995e+00 2.836513e+00 4.354112e+00 2.361727e+00 3.651702e+00 1.823150e+00 -2.143870e+01 -1.109373e+00 -5.880149e-01 -1.624487e-01 1.109677e-01 1.415136e-01 4.873637e-01 7.905410e-01 1.164955e+00 1.226636e+00 1.124082e+00 1.080139e+00 8.201491e-01 -5.388900e-01 7.880651e-01 4.861159e-02 1.418619e-01 -5.481593e-01 -4.174464e-01 -6.409990e-01 -6.524838e-01 -6.111345e-01 -4.859877e-01 -4.453413e-01 -4.067516e-01 -3.007159e-01 1.507525e+00
<VARIANCE> 39
 5.965556e+00 8.729097e+00 9.204652e+00 1.508176e+01 1.473787e+01 1.711422e+01 2.006810e+01 1.883378e+01 2.345609e+01 1.744706e+01 2.256070e+01 1.226945e+01 6.755354e+00 1.058231e+00 1.309514e+00 1.687958e+00 1.714371e+00 1.442723e+00 1.647607e+00 1.622107e+00 2.058048e+00 1.919748e+00 1.832723e+00 1.512235e+00 1.722037e+00 6.131395e-01 3.042744e-01 2.730943e-01 2.363107e-01 4.731238e-01 3.858808e-01 5.506487e-01 4.470998e-01 4.649681e-01 5.096553e-01 4.211645e-01 3.281443e-01 2.764598e-01 9.301004e-01
<GCONST> 9.895261e+01
<MIXTURE> 2 7.802030e-02
<MEAN> 39
 -3.206506e+00 1.090439e+01 6.900308e+00 1.365715e+01 7.586447e+00 4.930424e+00 -5.688186e-01 -3.671298e+00 -2.400721e+00 -4.521219e+00 -1.889118e+00 -3.478878e+00 -1.948469e+01 -2.258847e+00 -2.994617e+00 -1.549997e+00 -1.199668e+00 8.206508e-02 5.975829e-01 1.922611e+00 2.849592e+00 2.774386e+00 1.956470e+00 1.695873e+00 1.322781e+00 2.128575e+00 1.213586e+00 -9.053617e-01 -9.420730e-01 -1.576827e+00 -9.153104e-01 -8.294132e-01 -3.395452e-01 -3.510472e-02 1.431400e-01 6.308909e-01 2.912765e-01 2.948556e-01 2.223900e+00
<VARIANCE> 39
 1.178986e+01 1.034719e+01 1.284741e+01 1.474187e+01 1.621484e+01 1.792247e+01 2.649214e+01 2.390688e+01 2.122833e+01 1.873998e+01 1.774400e+01 1.575384e+01 9.258478e+00 1.258354e+00 1.693758e+00 1.458045e+00 2.344672e+00 1.573026e+00 2.483684e+00 3.028020e+00 3.004892e+00 2.836896e+00 2.671711e+00 2.504009e+00 2.240033e+00 7.586189e+00 4.287960e-01 3.474261e-01 6.556743e-01 6.700854e-01 5.176311e-01 6.736228e-01 5.127022e-01 6.204137e-01 6.271456e-01 5.585048e-01 5.041071e-01 4.309895e-01 5.551793e-01
<GCONST> 1.109361e+02
<MIXTURE> 3 8.278035e-02
<MEAN> 39
 3.598152e+00 1.225138e+01 2.745337e+00 9.871655e+00 6.715302e+00 2.710190e+00 -1.118764e-01 -8.211677e+00 -6.994899e+00 -3.255652e+00 -5.875982e-01 -1.671991e+00 -1.485480e+01 -7.520121e-02 -1.148689e-01 7.070648e-02 -1.681906e-02 5.384294e-01 5.169323e-01 1.614565e-01 -8.360902e-03 1.995914e-01 2.596807e-02 3.359381e-01 3.668466e-01 3.494855e-01 -2.253561e-01 -5.790919e-01 -1.748542e-01 -3.932663e-01 -3.329147e-01 -2.463154e-01 1.141176e-02 4.014801e-01 5.944462e-01 3.136734e-01 -2.108391e-03 5.177474e-02 5.823686e-01
<VARIANCE> 39
 1.553325e+01 1.561978e+01 1.903689e+01 2.846403e+01 3.069515e+01 3.262147e+01 2.538734e+01 2.230105e+01 3.638537e+01 2.735731e+01 2.367627e+01 1.968950e+01 1.678829e+01 2.264823e+00 1.120276e+00 1.406612e+00 2.167718e+00 1.696236e+00 1.610257e+00 2.113318e+00 3.244273e+00 3.265517e+00 1.938676e+00 2.283549e+00 1.732246e+00 1.612493e+00 3.537999e-01 3.604898e-01 3.212727e-01 5.413874e-01 5.201420e-01 4.302545e-01 3.934133e-01 6.443192e-01 6.218470e-01 4.588220e-01 4.141468e-01 3.291733e-01 5.300446e-01
<GCONST> 1.106948e+02
<MIXTURE> 4 5.394625e-02
<MEAN> 39
 -8.596816e+00 5.558495e+00 1.943567e+00 1.114490e+01 7.403910e+00 7.582946e+00 4.225977e+00 2.718385e+00 4.072858e+00 2.584939e+00 2.997717e+00 7.238609e-01 -2.151012e+01 2.539391e-01 -2.126457e+00 -9.128104e-01 -2.244432e+00 -1.225589e+00 -1.122660e+00 4.975106e-01 1.075178e+00 1.159141e+00 1.007264e+00 1.121751e+00 1.130862e+00 4.777146e+00 1.772340e+00 -2.464727e-01 -1.548782e-01 -1.271473e+00 -8.496630e-01 -1.010167e+00 -9.777587e-01 -8.507491e-01 -7.604079e-01 -4.235035e-01 -4.130780e-01 -2.724407e-01 2.450237e+00
<VARIANCE> 39
 7.069215e+00 9.033537e+00 1.154475e+01 1.711008e+01 1.235593e+01 2.126371e+01 1.947342e+01 1.751051e+01 1.713312e+01 1.376143e+01 1.877323e+01 1.525244e+01 9.061728e+00 1.916671e+00 1.902107e+00 2.141670e+00 2.010484e+00 2.358126e+00 2.482792e+00 3.712297e+00 2.818681e+00 3.416428e+00 3.491516e+00 2.693496e+00 2.262970e+00 3.818479e+00 3.322207e-01 3.838286e-01 7.442621e-01 6.578072e-01 4.835314e-01 8.423002e-01 5.444088e-01 5.792549e-01 5.652231e-01 4.453164e-01 6.194744e-01 3.923090e-01 3.828093e-01
<GCONST> 1.097615e+02
<MIXTURE> 5 5.519049e-02
<MEAN> 39
 1.830690e+00 1.390933e+01 6.500591e+00 9.806381e+00 8.132165e+00 3.993553e+00 1.605276e+00 -7.124358e+00 -8.670018e+00 -4.896202e+00 -2.395349e+00 8.208337e-01 -1.612466e+01 -7.622629e-01 -2.822998e+00 -1.604086e+00 -2.166731e+00 -8.430365e-01 -5.864112e-01 -3.002848e-01 9.505244e-01 2.582692e+00 1.656195e+00 4.129585e-01 2.612524e-01 3.893708e+00 8.927875e-01 -1.415018e+00 -1.267050e+00 -1.581038e+00 -1.065055e+00 -5.351837e-02 -3.469537e-01 8.641624e-02 8.897154e-01 7.940235e-01 7.393063e-01 -1.727932e-01 2.021409e+00
<VARIANCE> 39
 1.159129e+01 1.262943e+01 1.408740e+01 1.585746e+01 1.685246e+01 2.102740e+01 2.030923e+01 2.079837e+01 1.660446e+01 1.665300e+01 2.036425e+01 1.359576e+01 9.535600e+00 2.068989e+00 1.636181e+00 1.506179e+00 3.228925e+00 2.717830e+00 1.853255e+00 2.293081e+00 2.750088e+00 2.856465e+00 2.481541e+00 2.665639e+00 1.798769e+00 2.686211e+00 3.271256e-01 4.161641e-01 4.760142e-01 6.313602e-01 5.531466e-01 7.126560e-01 7.350135e-01 6.999042e-01 5.895093e-01 6.311257e-01 5.936392e-01 5.294161e-01 2.843552e-01
<GCONST> 1.100676e+02
<MIXTURE> 6 7.441611e-02
<MEAN> 39
 4.544709e+00 1.191457e+01 4.323067e+00 1.181786e+01 7.296849e+00 4.448025e-01 -5.512475e+00 -9.667801e+00 -3.072782e+00 -9.888406e-01 -1.502678e+00 -5.871667e+00 -1.474487e+01 -1.103824e+00 -3.080953e+00 -3.669818e-01 -2.426852e+00 -1.792520e+00 -1.120527e+00 1.432523e+00 2.427779e+00 1.335232e+00 3.047441e-01 4.179718e-01 1.570963e+00 4.710322e+00 2.290836e-01 -1.513250e+00 -6.667829e-02 -1.249770e+00 -1.268861e+00 -5.509236e-01 1.118458e-01 9.586064e-01 1.258017e-01 1.598834e-01 1.121135e-01 4.680061e-01 1.996929e+00
<VARIANCE> 39
 1.032469e+01 8.864247e+00 1.517523e+01 1.586766e+01 2.253557e+01 3.126718e+01 2.729697e+01 2.300263e+01 2.148357e+01 2.526005e+01 2.339580e+01 1.813646e+01 1.111833e+01 1.970692e+00 2.104535e+00 2.439476e+00 3.339710e+00 3.020665e+00 3.981427e+00 4.318733e+00 3.270222e+00 4.565982e+00 3.360434e+00 3.151430e+00 2.262282e+00 2.861612e+00 3.336445e-01 3.530362e-01 6.235390e-01 4.792305e-01 7.117650e-01 7.457527e-01 7.392420e-01 7.413188e-01 7.902474e-01 8.356278e-01 6.872001e-01 4.326485e-01 2.564749e-01
<GCONST> 1.162645e+02
<MIXTURE> 7 5.525897e-02
<MEAN> 39
 -7.538120e+00 4.256989e+00 -9.384857e-01 7.561357e+00 6.511995e+00 5.405691e+00 3.824006e+00 -8.619281e-01 1.477083e+00 2.769522e+00 1.424102e+00 1.396031e+00 -1.938654e+01 2.174243e+00 -7.633889e-01 2.079932e-01 -1.528566e+00 -1.389696e+00 -1.888345e+00 -9.558740e-01 8.734996e-02 3.533008e-01 -4.424748e-01 -2.616376e-01 -1.164893e-01 5.649947e+00 1.186131e+00 -5.060757e-01 1.947312e-01 -9.624314e-01 -8.131817e-01 -4.396817e-01 -6.391294e-01 -8.016579e-03 -1.467084e-01 -1.575203e-01 1.848991e-02 -1.143935e-01 1.948527e+00
<VARIANCE> 39
 1.142633e+01 1.340108e+01 1.449596e+01 1.697625e+01 2.268935e+01 2.187590e+01 1.882519e+01 2.641796e+01 2.641147e+01 2.624821e+01 1.912838e+01 1.752329e+01 1.511351e+01 2.086970e+00 1.962691e+00 2.305393e+00 3.013202e+00 2.129130e+00 2.592018e+00 2.522852e+00 3.245368e+00 3.235869e+00 2.782151e+00 1.863628e+00 1.980030e+00 4.070283e+00 1.934737e-01 4.153675e-01 8.144184e-01 7.377177e-01 7.313972e-01 7.552632e-01 7.078529e-01 6.536942e-01 7.741048e-01 7.499238e-01 5.366890e-01 4.389230e-01 5.100806e-01
<GCONST> 1.147107e+02
<MIXTURE> 8 4.269012e-02
<MEAN> 39
 5.684355e+00 1.278582e+01 2.202415e+00 5.584000e+00 3.550866e+00 5.096030e+00 4.052265e+00 -5.709731e+00 -7.377022e+00 -7.552770e+00 -4.547079e+00 -4.602967e-01 -1.363466e+01 -8.294897e-01 -2.762381e+00 -1.233406e+00 -2.126225e+00 -4.638050e-01 -7.682786e-01 -9.235466e-01 3.291114e-01 1.944097e+00 1.614141e+00 1.369768e+00 8.413648e-01 3.932419e+00 5.809898e-01 -1.149193e+00 -7.617128e-01 -1.332491e+00 -5.402127e-01 -8.699432e-02 -8.489905e-01 5.571337e-02 4.832317e-01 7.733074e-01 8.615338e-01 2.255493e-01 1.681915e+00
<VARIANCE> 39
 1.272158e+01 1.298471e+01 1.820148e+01 2.071135e+01 2.678933e+01 2.095788e+01 2.117197e+01 2.378550e+01 2.145636e+01 1.800567e+01 2.436856e+01 2.245732e+01 1.133367e+01 1.923006e+00 1.650737e+00 1.634863e+00 5.018384e+00 3.316203e+00 2.594761e+00 2.049569e+00 3.398967e+00 2.664808e+00 2.417691e+00 2.567792e+00 2.310364e+00 2.035710e+00 2.909465e-01 3.736146e-01 5.030040e-01 1.103691e+00 6.488402e-01 8.497567e-01 8.542346e-01 7.327892e-01 6.537301e-01 7.491732e-01 5.866953e-01 5.698204e-01 2.989701e-01
<GCONST> 1.147772e+02
<MIXTURE> 9 5.610549e-02
<MEAN> 39
 -8.851628e+00 4.116525e+00 5.494617e-01 8.233896e+00 6.275279e+00 5.574749e+00 3.281669e+00 1.047766e+00 3.040856e+00 2.660438e+00 3.084485e+00 9.485908e-01 -2.171802e+01 2.887807e-01 -8.650026e-02 2.114899e-01 -8.368084e-03 -1.919707e-02 -6.404395e-02 -5.619124e-02 -1.379668e-01 6.887622e-02 2.322567e-03 6.388872e-02 8.950782e-03 9.511570e-01 6.265182e-01 -1.460738e-01 9.627523e-02 -4.930928e-01 -2.517894e-01 -3.393035e-01 -1.351242e-01 -5.567898e-02 -1.234285e-01 -2.017756e-01 -2.088553e-01 -5.778921e-04 1.695727e+00
<VARIANCE> 39
 6.400661e+00 5.989372e+00 1.257367e+01 1.589040e+01 1.051461e+01 1.589295e+01 1.777708e+01 1.973285e+01 2.392142e+01 1.626274e+01 1.810423e+01 1.369203e+01 8.199642e+00 4.459608e-01 5.177859e-01 5.517284e-01 9.002966e-01 7.887680e-01 9.414033e-01 1.176122e+00 1.223045e+00 1.118298e+00 1.228775e+00 1.051262e+00 9.903479e-01 2.705968e+00 2.352611e-01 1.536622e-01 2.427672e-01 4.434417e-01 2.604676e-01 3.228975e-01 3.051212e-01 3.224536e-01 4.265542e-01 3.552646e-01 3.245761e-01 2.731274e-01 7.781634e-01
<GCONST> 8.953027e+01
<MIXTURE> 10 8.120991e-02
<MEAN> 39
 -2.546141e+00 1.201644e+01 6.955845e+00 1.373361e+01 1.011271e+01 6.071325e+00 1.558890e+00 -4.514513e+00 -2.559557e+00 -3.512140e+00 -2.507567e+00 -2.092959e+00 -1.937059e+01 -1.067936e+00 -3.331565e+00 -1.837257e+00 -2.667406e+00 -1.576017e+00 -1.065772e+00 8.787515e-01 1.905299e+00 1.898649e+00 9.983583e-01 6.617861e-01 8.594188e-01 4.571979e+00 1.199435e+00 -1.063021e+00 -6.504102e-01 -1.520077e+00 -1.337872e+00 -8.761201e-01 -5.667961e-01 6.591570e-02 3.244748e-02 5.096456e-01 3.797646e-01 8.559338e-02 2.273744e+00
<VARIANCE> 39
 9.738486e+00 1.026277e+01 1.308928e+01 1.344256e+01 1.563495e+01 1.968009e+01 2.881702e+01 2.381672e+01 1.948799e+01 1.848300e+01 1.462515e+01 1.259984e+01 8.141162e+00 1.691428e+00 1.588155e+00 1.721447e+00 2.376168e+00 2.205008e+00 2.497439e+00 2.405087e+00 2.760660e+00 2.465625e+00 2.366460e+00 2.144331e+00 2.078720e+00 4.208051e+00 2.862611e-01 4.620699e-01 7.101348e-01 5.559524e-01 4.403033e-01 7.315131e-01 7.660636e-01 6.377079e-01 6.410715e-01 5.715416e-01 4.128472e-01 3.705119e-01 2.881311e-01
<GCONST> 1.086763e+02
<MIXTURE> 11 5.594499e-02
<MEAN> 39
 5.703717e+00 8.290431e+00 6.305788e-01 5.075288e+00 2.430845e+00 2.330318e+00 -1.900822e+00 -7.797572e+00 -7.014583e+00 -4.086472e+00 -7.751336e-01 -2.678201e+00 -9.409073e+00 3.749552e-01 -7.762541e-01 -4.352637e-01 -1.729367e+00 -5.063951e-01 -1.045280e-01 -1.137533e-01 3.519019e-01 9.878735e-01 1.901943e-01 3.050599e-01 3.655336e-01 2.237414e+00 2.593015e-02 -8.503007e-01 -3.152629e-01 -8.090856e-01 -3.414737e-01 -1.486371e-01 -1.318798e-01 4.446931e-01 6.969809e-01 5.435225e-01 2.715346e-01 2.504335e-01 1.011742e+00
<VARIANCE> 39
 2.122788e+01 2.593401e+01 2.131093e+01 5.023080e+01 3.205197e+01 3.851656e+01 4.210900e+01 3.985467e+01 5.102293e+01 3.865917e+01 3.177581e+01 3.691079e+01 3.367557e+01 4.233285e+00 2.215205e+00 3.383380e+00 5.719618e+00 2.626233e+00 3.148674e+00 3.741888e+00 7.381519e+00 7.652357e+00 4.506899e+00 4.436986e+00 3.055771e+00 2.393497e+00 7.146584e-01 4.499243e-01 5.774635e-01 9.374068e-01 6.777360e-01 7.882752e-01 8.084041e-01 1.057685e+00 1.124759e+00 7.984145e-01 6.712800e-01 5.554326e-01 5.714950e-01
<GCONST> 1.311460e+02
<MIXTURE> 12 5.898362e-02
<MEAN> 39
 4.335826e+00 9.710233e+00 2.358665e+00 9.692113e+00 7.723263e+00 2.386047e+00 -2.248110e+00 -8.789476e+00 -4.546913e+00 -1.643422e+00 3.107649e-01 -2.832331e+00 -1.174286e+01 -9.132067e-01 -3.523394e+00 9.506689e-01 -1.398789e+00 -2.454068e+00 -2.503385e+00 -6.137586e-01 2.224580e+00 1.715003e+00 2.299457e-01 -8.649837e-02 8.797845e-01 4.727798e+00 2.702467e-01 -1.219513e+00 6.430101e-01 -9.738542e-01 -1.561460e+00 -6.432968e-01 -3.275205e-01 8.946356e-01 -1.421003e-01 2.523091e-02 1.216059e-01 1.546127e-01 1.610709e+00
<VARIANCE> 39
 1.587605e+01 1.611132e+01 1.548577e+01 2.162536e+01 2.199958e+01 2.390449e+01 2.255084e+01 1.727530e+01 2.385905e+01 1.873713e+01 1.989582e+01 1.668132e+01 2.290005e+01 1.869895e+00 1.622925e+00 3.279418e+00 4.317533e+00 3.405020e+00 2.713117e+00 3.918811e+00 2.403517e+00 5.949408e+00 2.984713e+00 2.535540e+00 2.037662e+00 2.181778e+00 3.189321e-01 4.170888e-01 7.265688e-01 5.357420e-01 7.082520e-01 6.685581e-01 6.779848e-01 6.759363e-01 1.078059e+00 7.169607e-01 5.644682e-01 4.473729e-01 2.558437e-01
<GCONST> 1.163442e+02
<MIXTURE> 13 6.131374e-02
<MEAN> 39
 -9.408860e+00 6.012227e+00 1.751939e+00 1.053173e+01 6.746893e+00 6.202659e+00 5.222413e+00 1.915248e+00 3.158393e+00 2.373900e+00 3.067676e+00 1.834405e+00 -2.218920e+01 1.631232e+00 -1.622067e+00 -1.091367e+00 -2.550792e+00 -1.242633e+00 -1.520683e+00 -7.930615e-01 -5.392501e-01 2.266267e-01 5.161734e-02 -1.287205e-01 -5.807421e-02 5.963391e+00 1.546803e+00 -5.501902e-01 -4.697920e-01 -1.341600e+00 -6.207675e-01 -3.575600e-01 -6.444806e-01 -4.837655e-01 -2.152001e-01 -2.003396e-02 -2.245512e-01 -3.710462e-01 2.266865e+00
<VARIANCE> 39
 6.440171e+00 9.325162e+00 1.144246e+01 1.509928e+01 1.279130e+01 1.598056e+01 2.169994e+01 1.621856e+01 1.804512e+01 1.302174e+01 1.976533e+01 1.395129e+01 7.824995e+00 1.769319e+00 1.380599e+00 1.645193e+00 2.171504e+00 1.808555e+00 2.020710e+00 2.595731e+00 2.214293e+00 2.777915e+00 2.373103e+00 1.960281e+00 1.561570e+00 3.753384e+00 1.536973e-01 3.187686e-01 4.548856e-01 4.955865e-01 4.468712e-01 7.779425e-01 5.930049e-01 4.138798e-01 4.533709e-01 4.794297e-01 5.746971e-01 4.056713e-01 3.410901e-01
<GCONST> 1.037578e+02
<MIXTURE> 14 6.356227e-02
<MEAN> 39
 3.073755e+00 1.295151e+01 5.319259e+00 9.980222e+00 6.791429e+00 3.842705e+00 4.508283e-02 -9.032566e+00 -8.318360e+00 -4.687799e+00 -7.261121e-01 -5.378423e-01 -1.493451e+01 4.025289e-01 -3.182954e+00 -2.191875e+00 -3.709720e+00 -1.659982e+00 -3.752123e-01 -9.181161e-02 1.198996e+00 2.289151e+00 1.801481e+00 8.632835e-01 1.241947e-01 5.018455e+00 6.748915e-01 -1.488184e+00 -1.112577e+00 -1.624578e+00 -7.910663e-01 1.362376e-02 -1.776917e-01 4.512842e-01 8.959862e-01 9.129242e-01 2.933470e-01 -3.297541e-01 1.839589e+00
<VARIANCE> 39
 1.406691e+01 1.055071e+01 1.772674e+01 1.760674e+01 2.077513e+01 2.269475e+01 3.541762e+01 2.044291e+01 2.246355e+01 2.060318e+01 2.069908e+01 2.063871e+01 1.144616e+01 2.826049e+00 2.163140e+00 2.181784e+00 4.601072e+00 2.931732e+00 2.924734e+00 3.630709e+00 3.686033e+00 3.324919e+00 3.045351e+00 3.190993e+00 2.174497e+00 3.138650e+00 3.879480e-01 4.145217e-01 5.468760e-01 8.088237e-01 6.352973e-01 8.630753e-01 9.736008e-01 8.725882e-01 7.501734e-01 7.104403e-01 7.562079e-01 6.052443e-01 2.991843e-01
<GCONST> 1.180244e+02
<MIXTURE> 15 5.057745e-02
<MEAN> 39
 5.770849e+00 1.395085e+01 2.746591e+00 4.978488e+00 3.304653e+00 5.660597e+00 4.876073e+00 -3.507421e+00 -6.499242e+00 -7.904403e+00 -6.157363e+00 -1.087687e+00 -1.495472e+01 -1.147548e+00 -2.873738e+00 -1.112856e+00 -1.245207e+00 -2.731664e-01 -9.971696e-01 -8.654606e-01 -1.196587e-01 1.404856e+00 1.402915e+00 1.142345e+00 6.863449e-01 3.792304e+00 5.154792e-01 -1.111942e+00 -8.497965e-01 -1.142716e+00 -5.456970e-01 -1.604083e-01 -7.664592e-01 -2.841913e-01 3.608951e-01 6.981766e-01 1.012750e+00 4.415733e-01 1.668686e+00
<VARIANCE> 39
 1.143320e+01 9.579609e+00 1.678243e+01 1.882814e+01 2.398525e+01 2.095884e+01 1.802558e+01 2.685459e+01 2.379049e+01 1.406567e+01 2.447222e+01 1.869507e+01 8.273331e+00 2.032361e+00 1.673816e+00 1.507714e+00 3.148927e+00 2.403098e+00 2.056684e+00 2.021890e+00 2.288578e+00 2.092940e+00 2.258297e+00 1.942770e+00 1.635570e+00 2.202266e+00 3.126481e-01 2.942207e-01 4.317708e-01 8.613946e-01 4.613949e-01 6.794702e-01 7.045270e-01 6.295338e-01 5.635442e-01 5.045328e-01 4.374325e-01 4.320767e-01 2.845887e-01
<GCONST> 1.084653e+02
<MIXTURE> 16 4.247758e-02
<MEAN> 39
 -7.757449e+00 5.487973e+00 1.454553e+00 9.515499e+00 7.287071e+00 6.481051e+00 4.091562e+00 1.744518e+00 4.152455e+00 1.380426e+00 2.696589e+00 1.725491e+00 -1.990087e+01 2.460379e+00 -1.319988e+00 6.539686e-01 -1.942900e+00 -2.401443e+00 -3.261346e+00 -1.338116e+00 -2.846391e-01 -7.059556e-01 -1.083015e+00 -9.603064e-01 -5.585658e-01 6.544073e+00 1.073061e+00 -6.135122e-01 3.674358e-01 -9.344576e-01 -1.138040e+00 -8.288781e-01 -6.442472e-01 -2.751082e-01 -6.986029e-01 -3.071849e-02 -2.290119e-01 -1.968113e-01 1.889642e+00
<VARIANCE> 39
 9.299514e+00 1.715844e+01 1.368236e+01 1.525673e+01 2.104675e+01 1.669605e+01 2.091724e+01 2.686407e+01 2.339786e+01 2.139327e+01 2.510443e+01 1.871492e+01 1.915016e+01 2.408035e+00 2.205737e+00 3.477978e+00 3.910085e+00 2.838166e+00 3.513890e+00 2.613267e+00 2.592859e+00 3.467023e+00 3.023943e+00 2.205494e+00 2.093593e+00 4.300535e+00 1.934105e-01 4.780930e-01 8.938155e-01 6.845022e-01 7.148906e-01 5.882366e-01 7.190038e-01 8.504456e-01 8.065392e-01 6.493357e-01 6.378465e-01 4.592414e-01 4.648483e-01
<GCONST> 1.165650e+02
<MIXTURE> 17 4.307073e-02
<MEAN> 39
 -9.017521e+00 4.359550e+00 3.690478e-01 9.558718e+00 6.377337e+00 6.744714e+00 3.985565e+00 2.100511e+00 3.687530e+00 2.293070e+00 3.372409e+00 1.833977e+00 -2.255946e+01 4.462487e-01 -7.796197e-01 -1.397959e-01 -8.222858e-01 -7.890205e-01 -1.041687e+00 -4.945348e-01 -3.946736e-01 -3.338513e-01 -6.556373e-01 -4.445177e-01 -1.393559e-01 2.462648e+00 8.163792e-01 -2.527458e-01 1.601275e-01 -7.417099e-01 -4.587011e-01 -7.283302e-01 -4.287942e-01 -1.987860e-01 -1.898697e-01 -2.149455e-01 -2.399931e-01 -1.733189e-01 2.340852e+00
<VARIANCE> 39
 6.165069e+00 8.584048e+00 1.095457e+01 1.577810e+01 1.131996e+01 1.313447e+01 1.879157e+01 1.979927e+01 2.098595e+01 1.511684e+01 1.521248e+01 1.399391e+01 6.180986e+00 4.433719e-01 1.129153e+00 6.592413e-01 1.009682e+00 9.331256e-01 1.095409e+00 1.004233e+00 1.287831e+00 1.146019e+00 1.313688e+00 1.223831e+00 1.065427e+00 4.523757e+00 1.830337e-01 2.645517e-01 3.744600e-01 3.648101e-01 3.416384e-01 3.221607e-01 2.801893e-01 4.082443e-01 4.309786e-01 4.048734e-01 3.163569e-01 3.031531e-01 6.357112e-01
<GCONST> 9.208852e+01
<STATE> 3
<NUMMIXES> 17
<MIXTURE> 1 3.797127e-02
<MEAN> 39
 -6.179957e+00 2.364940e+00 2.660316e+00 7.253398e+00 6.188025e+00 3.800814e+00 2.774025e+00 7.934727e-01 1.889623e+00 -3.776766e-01 2.267747e+00 2.633089e-01 -8.765738e+00 -4.849543e-01 -3.284071e+00 -2.491033e+00 -3.261029e+00 -6.553452e-01 -9.280259e-01 8.184152e-01 2.050637e+00 2.426433e+00 2.019974e+00 1.766698e+00 1.411802e+00 5.846869e+00 1.569414e+00 3.725663e-01 -4.666149e-01 -8.311305e-01 -5.286205e-01 -4.213036e-01 -8.431322e-01 -8.453529e-01 -5.933321e-01 -1.258805e-01 -3.493521e-01 -2.701448e-01 5.221329e-01
<VARIANCE> 39
 1.463536e+01 2.339972e+01 1.693662e+01 2.245737e+01 2.461731e+01 2.472047e+01 3.458381e+01 3.100818e+01 2.910551e+01 2.128766e+01 2.795271e+01 1.802177e+01 4.767464e+01 6.459078e+00 2.983832e+00 2.528968e+00 3.925546e+00 4.250144e+00 3.715467e+00 6.264084e+00 5.668142e+00 3.433516e+00 3.528457e+00 3.165002e+00 2.369626e+00 3.126323e+00 8.284159e-01 5.446115e-01 6.376628e-01 1.146167e+00 7.081721e-01 8.395947e-01 9.017270e-01 1.018864e+00 8.629520e-01 7.832657e-01 8.830914e-01 6.735663e-01 7.814603e-01
<GCONST> 1.277193e+02
<MIXTURE> 2 6.665295e-02
<MEAN> 39
 1.115925e-01 3.340124e+00 -3.247368e+00 -7.732645e-01 2.735000e+00 -8.780139e-01 2.566721e+00 -3.224060e+00 3.511154e-01 1.559140e+00 -7.492756e-01 3.280142e+00 9.154148e-01 3.203958e+00 -3.167078e+00 -2.068348e+00 -5.903674e+00 -3.891162e+00 1.601699e+00 -1.296831e+00 -3.767438e-01 1.558246e+00 1.291945e+00 2.362268e+00 -2.154248e-01 6.448553e+00 7.131255e-01 5.985111e-02 2.425358e-01 -2.948423e-01 -4.600042e-01 1.122283e+00 -1.595217e-01 -2.476312e-01 -2.215278e-01 -2.459520e-01 3.487137e-01 -6.519834e-01 -6.288688e-01
<VARIANCE> 39
 1.611591e+01 1.479051e+01 1.869895e+01 2.479203e+01 2.337920e+01 2.248016e+01 2.850848e+01 2.378224e+01 2.400373e+01 2.867728e+01 1.636305e+01 1.223848e+01 2.445780e+01 3.224039e+00 3.504148e+00 3.258384e+00 3.970012e+00 3.081409e+00 4.507258e+00 4.662278e+00 5.538350e+00 5.113989e+00 4.020458e+00 3.326135e+00 4.027394e+00 3.411823e+00 4.133543e-01 5.318581e-01 4.059576e-01 7.800573e-01 6.324469e-01 6.028803e-01 7.083543e-01 6.450753e-01 5.888626e-01 6.540978e-01 4.777506e-01 4.275603e-01 5.470557e-01
<GCONST> 1.212592e+02
<MIXTURE> 3 5.419602e-02
<MEAN> 39
 -4.298791e+00 1.847749e+00 2.130356e+00 5.424212e+00 4.328081e+00 -1.279647e+00 2.984282e+00 9.385146e-01 1.741430e+00 -1.132924e+00 -2.267055e+00 1.162076e+00 -3.712648e+00 1.370885e+00 -3.701855e+00 1.281928e+00 -1.844903e+00 -3.747495e+00 -3.228588e+00 -1.193679e+00 1.980063e+00 2.657893e-01 -5.257973e-01 6.729506e-01 1.157124e+00 6.686317e+00 9.548638e-01 -7.663767e-02 8.108759e-01 -7.037406e-02 -9.879366e-01 -2.184280e-01 -8.319163e-01 -1.963992e-01 -7.196477e-01 -5.578994e-02 4.152883e-01 -1.880085e-01 1.310806e-01
<VARIANCE> 39
 1.651697e+01 1.857253e+01 1.538724e+01 2.505983e+01 2.637532e+01 2.652361e+01 2.439598e+01 2.319105e+01 2.797523e+01 2.237304e+01 1.980679e+01 1.608806e+01 3.327598e+01 3.317957e+00 2.972295e+00 2.484542e+00 4.718702e+00 3.952742e+00 2.555829e+00 4.890385e+00 3.757592e+00 3.220826e+00 3.638566e+00 3.524031e+00 2.390667e+00 3.022066e+00 3.019328e-01 4.494397e-01 4.007766e-01 6.194171e-01 6.557556e-01 6.202101e-01 7.338113e-01 6.375048e-01 7.885370e-01 7.494971e-01 4.995240e-01 4.169095e-01 5.324579e-01
<GCONST> 1.198522e+02
<MIXTURE> 4 6.290662e-02
<MEAN> 39
 -4.350695e+00 -1.234332e+00 -2.299828e+00 2.862461e+00 4.595248e+00 2.030153e+00 2.334170e+00 -1.406456e+00 3.134577e+00 1.450468e+00 2.211170e+00 8.973672e-01 8.527271e-01 2.143986e+00 -2.161890e+00 -2.841340e+00 -4.273099e+00 -1.253239e+00 -2.981326e-01 -9.545101e-01 2.775780e-02 1.143270e+00 1.493378e+00 1.440653e+00 1.129939e+00 5.326271e+00 1.706485e+00 1.121170e+00 -3.913748e-02 -6.637321e-01 -3.349725e-01 2.031016e-01 -7.349145e-01 -4.997591e-01 -9.182343e-01 -5.346603e-01 -3.126676e-01 7.314908e-04 -8.228385e-01
<VARIANCE> 39
 1.334556e+01 1.869263e+01 1.472858e+01 2.302768e+01 1.982250e+01 1.761433e+01 2.677851e+01 3.079027e+01 2.322848e+01 1.783937e+01 1.898977e+01 1.706363e+01 2.157629e+01 3.378287e+00 2.616308e+00 4.009821e+00 6.590670e+00 2.995041e+00 2.872583e+00 4.557923e+00 3.649024e+00 2.813423e+00 2.940230e+00 2.301959e+00 2.054302e+00 2.437894e+00 3.100477e-01 5.292336e-01 6.916346e-01 1.002017e+00 8.163514e-01 7.009065e-01 1.189966e+00 1.173513e+00 9.031864e-01 6.562389e-01 5.394480e-01 5.783021e-01 4.917396e-01
<GCONST> 1.206512e+02
<MIXTURE> 5 4.177203e-02
<MEAN> 39
 7.307796e+00 3.053914e+00 -4.884887e+00 -6.902720e+00 -1.292081e+00 4.037585e+00 3.097312e-01 -6.031286e+00 -2.276497e+00 2.181282e+00 5.749652e+00 1.867205e+00 2.468838e+00 1.825375e+00 -4.423739e+00 -3.110824e+00 -6.049189e+00 -2.158976e+00 7.436943e-01 -1.769381e-01 1.040237e+00 2.434483e+00 2.634923e+00 2.162467e+00 -5.457176e-01 6.120343e+00 2.193296e-02 3.925913e-02 2.475930e-01 5.550959e-01 4.925701e-01 2.972560e-01 2.516734e-01 -7.106781e-04 -2.382275e-01 -2.068690e-01 -6.750041e-01 -7.070369e-01 -5.772446e-01
<VARIANCE> 39
 1.089163e+01 1.254076e+01 1.269680e+01 1.847669e+01 1.870781e+01 1.709802e+01 1.778468e+01 1.781242e+01 1.791637e+01 2.163209e+01 2.368728e+01 1.538152e+01 1.590520e+01 1.625162e+00 3.062779e+00 3.178949e+00 4.438347e+00 4.619435e+00 4.910837e+00 6.034913e+00 6.161756e+00 5.442184e+00 3.919246e+00 5.141709e+00 4.605112e+00 2.012077e+00 1.892026e-01 2.695949e-01 2.429648e-01 4.072305e-01 3.935062e-01 3.507429e-01 4.590055e-01 5.696974e-01 6.004784e-01 4.525521e-01 6.004018e-01 4.079039e-01 3.388007e-01
<GCONST> 1.137132e+02
<MIXTURE> 6 6.795379e-02
<MEAN> 39
 -4.950998e+00 2.166472e+00 -9.371427e-02 3.913874e+00 3.109336e+00 1.350207e+00 2.752273e+00 1.908527e-01 3.949560e+00 1.750081e+00 1.925531e+00 2.127142e+00 -6.055208e+00 4.572413e+00 -1.759436e+00 -1.382544e+00 -4.316948e+00 -1.703110e+00 -1.063974e+00 -1.592854e+00 -9.494376e-01 -4.201663e-01 4.763249e-01 -3.806807e-01 -7.767343e-01 7.841386e+00 8.906411e-01 -3.758716e-01 -3.469458e-01 -7.376995e-01 -1.387691e-01 3.744281e-01 -3.387674e-01 -1.169082e-01 -3.141739e-01 1.471991e-01 -1.783275e-01 -3.931384e-01 1.559176e-01
<VARIANCE> 39
 1.334863e+01 1.482579e+01 1.956835e+01 2.293700e+01 2.224580e+01 2.493406e+01 3.633977e+01 2.200308e+01 2.694238e+01 2.442556e+01 2.197221e+01 1.938288e+01 4.014830e+01 1.436312e+00 2.560928e+00 2.912805e+00 5.411294e+00 2.692269e+00 4.588027e+00 3.316024e+00 2.508578e+00 3.297792e+00 3.187586e+00 3.340458e+00 2.671592e+00 3.027169e+00 3.540102e-01 4.648517e-01 5.233376e-01 7.462425e-01 7.013819e-01 8.220282e-01 1.069960e+00 6.090438e-01 5.872208e-01 7.427710e-01 6.920891e-01 6.599712e-01 7.723018e-01
<GCONST> 1.210562e+02
<MIXTURE> 7 5.879899e-02
<MEAN> 39
 -1.073634e+00 8.626083e-01 4.385511e+00 6.703624e+00 -1.091479e+00 -4.693221e+00 8.627113e-01 1.916674e+00 1.029296e+00 -3.601560e+00 1.838604e+00 1.474761e+00 -3.352936e-02 1.032870e+00 -3.158501e+00 2.964960e+00 -3.013137e+00 -4.470575e+00 -2.587461e+00 -2.205360e-01 1.014249e+00 -1.950003e+00 5.077888e-01 7.518300e-01 1.131499e+00 6.084589e+00 4.383610e-01 3.823951e-01 7.142674e-01 -5.528989e-01 -3.750547e-01 3.626072e-01 -5.430539e-01 -8.507400e-01 -8.036890e-01 4.865047e-01 -2.954765e-01 -4.028692e-01 -5.067415e-01
<VARIANCE> 39
 2.250659e+01 1.346212e+01 2.655932e+01 1.764464e+01 2.735514e+01 3.235774e+01 4.415036e+01 3.233081e+01 3.067517e+01 1.948597e+01 2.886741e+01 2.605042e+01 2.769330e+01 4.111302e+00 2.939196e+00 3.190334e+00 6.152136e+00 3.712717e+00 4.468469e+00 5.988589e+00 5.410881e+00 4.023666e+00 7.360950e+00 3.035579e+00 2.792830e+00 3.665959e+00 3.853453e-01 4.215874e-01 4.687913e-01 5.442917e-01 5.622616e-01 9.915664e-01 1.050652e+00 9.707952e-01 6.462547e-01 5.861702e-01 8.699244e-01 5.944980e-01 6.723386e-01
<GCONST> 1.267332e+02
<MIXTURE> 8 6.921823e-02
<MEAN> 39
 8.493791e-01 6.068016e+00 2.297943e+00 5.336221e+00 6.035404e+00 2.568410e+00 1.148553e+00 -4.616566e+00 -3.747013e+00 -2.655956e+00 -2.915698e+00 -3.909754e-01 -7.035179e+00 9.775732e-01 -3.585459e+00 -2.748978e+00 -4.356853e+00 -2.028591e+00 -3.594722e-01 -1.050953e+00 5.067656e-01 2.375819e+00 2.163371e+00 1.974160e+00 8.152857e-01 5.686470e+00 1.036093e+00 -2.654788e-01 -5.984004e-01 -1.036257e+00 -6.871408e-01 2.984432e-01 -2.569323e-01 -4.773418e-02 1.430179e-01 1.793543e-01 4.618774e-01 -1.013030e-01 5.716408e-01
<VARIANCE> 39
 1.666503e+01 1.492682e+01 1.980042e+01 2.227111e+01 2.507608e+01 2.580313e+01 2.166470e+01 2.129238e+01 2.104136e+01 2.167388e+01 2.014285e+01 1.605274e+01 1.650615e+01 1.489574e+00 2.036811e+00 2.350192e+00 4.700119e+00 3.697757e+00 2.967627e+00 4.571669e+00 5.246942e+00 3.657636e+00 2.813318e+00 2.715471e+00 3.060803e+00 2.215511e+00 2.996268e-01 5.460277e-01 5.062988e-01 1.030656e+00 7.416061e-01 9.523457e-01 8.618586e-01 7.042781e-01 7.910019e-01 7.769532e-01 5.911404e-01 5.396934e-01 2.800571e-01
<GCONST> 1.187137e+02
<MIXTURE> 9 8.738393e-02
<MEAN> 39
 3.640631e+00 1.382090e+00 -2.133348e+00 1.067658e+00 7.075665e-01 -2.655067e+00 -3.015846e+00 -2.879301e+00 3.941964e+00 2.370771e+00 2.230683e+00 -3.052584e+00 2.918180e+00 1.617242e+00 -5.226706e+00 -1.862256e+00 -4.707622e+00 -2.518043e+00 -1.703691e+00 -5.923404e-01 3.283491e+00 2.594570e+00 2.298130e+00 -8.479480e-01 6.627037e-02 6.944510e+00 2.678232e-01 -1.370170e-01 2.409741e-01 1.101153e-01 1.128885e-01 2.320211e-01 9.265389e-02 1.584422e-01 -5.751709e-01 -2.037839e-01 -5.805190e-01 1.619760e-02 -4.901955e-01
<VARIANCE> 39
 1.524686e+01 1.351697e+01 1.976340e+01 2.051245e+01 1.623121e+01 2.525158e+01 2.329921e+01 2.717408e+01 1.814840e+01 2.159448e+01 1.838838e+01 1.292619e+01 1.780534e+01 3.483132e+00 2.436483e+00 5.107974e+00 5.007839e+00 5.366017e+00 7.587675e+00 8.924835e+00 5.878685e+00 5.954443e+00 6.406458e+00 3.896235e+00 3.931518e+00 2.937022e+00 3.968561e-01 3.395671e-01 3.944432e-01 4.219766e-01 4.881352e-01 5.204698e-01 6.371375e-01 6.123478e-01 5.166821e-01 5.114108e-01 5.749322e-01 4.059056e-01 4.006722e-01
<GCONST> 1.204839e+02
<MIXTURE> 10 5.765666e-02
<MEAN> 39
 3.405051e-02 3.808269e+00 -1.544247e+00 -1.231121e-01 3.000056e+00 -2.087607e+00 1.597717e+00 -3.385110e+00 -2.540445e-01 2.009984e+00 -7.183659e-01 2.601206e+00 3.216779e-01 2.942287e+00 -3.975273e+00 -2.091915e+00 -4.861102e+00 -4.064437e+00 1.612158e-01 -1.744582e+00 3.285768e-01 2.177813e+00 1.301098e+00 1.902617e+00 -4.127499e-01 7.051780e+00 6.669552e-01 -2.686523e-01 1.729750e-02 -2.164641e-02 -4.235969e-01 8.922965e-01 -2.348592e-01 -1.947486e-02 9.164297e-02 -2.730604e-01 2.444615e-01 -6.400162e-01 -3.825788e-01
<VARIANCE> 39
 1.518220e+01 1.442116e+01 1.819944e+01 2.577698e+01 2.346519e+01 2.477185e+01 3.507656e+01 2.959050e+01 2.480363e+01 3.289369e+01 1.696164e+01 1.223815e+01 2.446309e+01 3.706746e+00 3.413581e+00 3.828624e+00 5.326258e+00 2.985153e+00 6.301457e+00 7.585006e+00 7.352582e+00 5.626179e+00 5.052655e+00 4.229455e+00 4.392510e+00 3.345610e+00 4.126990e-01 5.579377e-01 4.533849e-01 8.038013e-01 5.791602e-01 5.863373e-01 9.693984e-01 8.123617e-01 6.319466e-01 8.042504e-01 4.565649e-01 3.952728e-01 5.185997e-01
<GCONST> 1.249072e+02
<MIXTURE> 11 5.798049e-02
<MEAN> 39
 1.313924e+00 5.254532e+00 2.129721e+00 5.838987e+00 5.345778e+00 1.424954e+00 4.810887e-01 -5.285929e+00 -3.736813e+00 -3.011475e+00 -3.317119e+00 -2.497796e+00 -6.604860e+00 1.397926e-01 -2.899995e+00 -1.257648e+00 -3.215183e+00 -1.814297e+00 -8.630568e-01 -8.887657e-01 9.986700e-01 1.693954e+00 1.303695e+00 1.069192e+00 8.627523e-01 4.818333e+00 7.745670e-01 -1.164435e-01 -2.870303e-01 -9.672043e-01 -7.236652e-01 1.903227e-01 -4.232260e-01 2.063302e-01 -1.864137e-03 1.278857e-01 4.148590e-01 2.808872e-01 4.412288e-01
<VARIANCE> 39
 2.286751e+01 1.773427e+01 3.214386e+01 2.374476e+01 2.321680e+01 2.752109e+01 3.433721e+01 2.827727e+01 1.852553e+01 2.347510e+01 2.263570e+01 2.575286e+01 1.776285e+01 4.352001e+00 2.880004e+00 3.904191e+00 5.169647e+00 3.569690e+00 3.615824e+00 5.926287e+00 5.105685e+00 4.963619e+00 4.184625e+00 2.746357e+00 2.839538e+00 2.814368e+00 5.121754e-01 6.051498e-01 4.748206e-01 1.225399e+00 7.762033e-01 1.102529e+00 8.831630e-01 9.686294e-01 6.255230e-01 7.959982e-01 5.711700e-01 5.318977e-01 3.022601e-01
<GCONST> 1.254915e+02
<MIXTURE> 12 6.623358e-02
<MEAN> 39
 -4.931341e+00 -3.015322e+00 -2.214224e+00 2.401646e+00 4.652610e+00 1.768503e+00 1.748521e+00 4.968973e-01 3.554302e+00 2.574485e+00 2.952418e+00 1.074079e+00 1.404371e+00 2.713869e+00 -1.504617e+00 -2.013208e+00 -3.255436e+00 -1.563829e+00 -1.281785e+00 -1.118070e+00 -3.423581e-01 2.979164e-01 7.749544e-01 3.691992e-01 3.202598e-01 5.114425e+00 1.605932e+00 1.212641e+00 1.461992e-01 -1.857470e-01 -3.920574e-01 -9.508554e-03 -7.074894e-01 -6.309626e-01 -9.429474e-01 -6.306834e-01 -4.507785e-01 -2.197831e-01 -1.025305e+00
<VARIANCE> 39
 1.171284e+01 1.518788e+01 1.575112e+01 2.402235e+01 2.894926e+01 2.345984e+01 2.829816e+01 2.566027e+01 2.528322e+01 1.935415e+01 2.501472e+01 1.608588e+01 2.823863e+01 3.081854e+00 3.022156e+00 3.104970e+00 5.254436e+00 3.057943e+00 3.605441e+00 4.353223e+00 4.261003e+00 3.954351e+00 3.638407e+00 2.756531e+00 2.408652e+00 3.636388e+00 2.992056e-01 4.429200e-01 6.322044e-01 8.978076e-01 8.622034e-01 1.135860e+00 1.154117e+00 9.679734e-01 1.030007e+00 5.945786e-01 8.091336e-01 6.083092e-01 6.560233e-01
<GCONST> 1.235104e+02
<MIXTURE> 13 5.220751e-02
<MEAN> 39
 -4.856840e+00 -9.625930e-01 7.275710e-02 4.577459e+00 2.261786e+00 2.366315e+00 2.025566e+00 1.613941e+00 5.657340e+00 1.242845e+00 4.711151e+00 1.984509e+00 -2.113909e+00 4.382618e+00 -2.017570e+00 -1.680390e+00 -3.439403e+00 -1.608422e+00 -2.742532e+00 -1.810113e+00 -8.073463e-01 -8.645189e-01 -5.638542e-01 -1.866079e+00 -1.043564e+00 7.284712e+00 1.006104e+00 -5.992270e-02 -3.810818e-01 -4.317044e-01 7.160658e-02 -1.871945e-01 -4.100388e-01 -4.256487e-02 -5.088003e-01 1.230378e-02 -6.873134e-01 -3.592409e-01 -3.992521e-01
<VARIANCE> 39
 1.402825e+01 1.664594e+01 1.745531e+01 2.144243e+01 2.366979e+01 2.792088e+01 2.828284e+01 2.182994e+01 3.483079e+01 2.447675e+01 2.064963e+01 2.162447e+01 3.551793e+01 1.686121e+00 1.815689e+00 3.225124e+00 4.654559e+00 2.924874e+00 3.940531e+00 3.521751e+00 2.491251e+00 2.737531e+00 2.740824e+00 3.889275e+00 2.626103e+00 3.626960e+00 4.589076e-01 4.354922e-01 5.404553e-01 6.054359e-01 7.057908e-01 8.548428e-01 9.833121e-01 6.966521e-01 9.428670e-01 6.770997e-01 7.153205e-01 7.405537e-01 6.958343e-01
<GCONST> 1.214081e+02
<MIXTURE> 14 6.336064e-02
<MEAN> 39
 -3.102566e+00 1.912950e+00 1.283895e+00 6.474853e+00 5.064124e+00 -2.995979e+00 7.509037e-01 -1.849155e+00 3.180984e+00 -1.161426e-01 -3.058125e+00 -7.406773e-02 -1.697418e+00 1.307289e+00 -4.251341e+00 1.704170e+00 -2.006531e+00 -4.222818e+00 -3.579503e+00 -2.172686e+00 2.399844e+00 2.437119e-01 -5.755956e-01 6.124817e-01 8.122530e-01 6.760575e+00 8.228619e-01 -4.487118e-02 8.725528e-01 -2.954572e-01 -1.044331e+00 1.578241e-01 -5.693409e-01 1.962571e-01 -1.060745e+00 -2.138675e-01 5.857103e-01 -3.771290e-02 -1.038814e-01
<VARIANCE> 39
 2.205374e+01 1.654924e+01 1.921229e+01 1.871685e+01 2.027256e+01 2.439164e+01 3.279729e+01 2.599386e+01 3.078374e+01 2.837887e+01 1.821113e+01 1.567297e+01 2.355978e+01 3.956105e+00 2.224192e+00 3.108558e+00 3.525080e+00 3.923918e+00 2.725994e+00 5.190211e+00 4.071491e+00 4.537575e+00 3.198138e+00 2.539932e+00 1.849751e+00 2.461262e+00 3.825511e-01 5.210128e-01 4.705029e-01 4.990224e-01 5.692474e-01 5.727358e-01 9.359874e-01 7.309282e-01 1.060401e+00 7.956561e-01 4.728117e-01 4.099217e-01 4.387174e-01
<GCONST> 1.199151e+02
<MIXTURE> 15 5.296130e-02
<MEAN> 39
 -3.239644e+00 -3.645830e-01 4.859626e+00 8.004890e+00 1.118152e+00 -5.947707e+00 6.933146e-01 3.118043e+00 2.496836e+00 -2.799941e+00 1.706445e+00 1.611168e+00 -3.117322e-01 2.023841e+00 -2.204480e+00 3.713638e+00 -2.710743e+00 -5.025197e+00 -2.801735e+00 -1.379014e+00 -3.612759e-01 -2.920926e+00 -2.061348e-01 1.003635e-01 -1.716412e-01 6.368944e+00 4.172554e-01 5.640053e-01 6.958479e-01 -7.949417e-01 -6.471576e-01 8.227721e-01 -4.248302e-01 -8.720635e-01 -9.838379e-01 4.901645e-01 -1.589762e-01 -3.664100e-01 -7.206612e-01
<VARIANCE> 39
 1.919971e+01 1.562036e+01 3.093554e+01 3.227851e+01 3.267190e+01 3.477083e+01 3.006963e+01 3.677777e+01 4.371973e+01 2.159473e+01 3.700209e+01 2.086390e+01 3.354083e+01 4.126808e+00 2.744813e+00 2.912030e+00 4.983716e+00 2.756938e+00 4.830574e+00 4.095706e+00 6.741366e+00 4.345233e+00 5.406324e+00 3.473796e+00 2.746572e+00 3.897156e+00 3.947991e-01 5.277836e-01 5.655605e-01 7.828747e-01 6.213287e-01 1.019948e+00 7.202138e-01 1.059770e+00 1.103860e+00 6.169669e-01 1.182291e+00 5.242755e-01 7.778684e-01
<GCONST> 1.289017e+02
<MIXTURE> 16 6.612162e-02
<MEAN> 39
 -5.077780e+00 1.387092e+00 3.076109e+00 5.819226e+00 5.294380e+00 3.056237e+00 2.309091e+00 -9.307639e-02 1.069697e+00 -1.208363e+00 1.098921e-01 1.302462e-01 -5.017948e+00 1.182632e+00 -4.142631e+00 -3.230425e+00 -3.341122e+00 -1.761194e+00 -1.673521e+00 -3.852801e-01 1.832650e+00 2.292490e+00 1.983180e+00 1.103781e+00 4.437262e-01 6.569030e+00 1.851614e+00 1.069739e-01 -6.903104e-01 -5.681711e-01 -5.135481e-01 -5.293844e-01 -9.116253e-01 -4.355251e-01 -4.423461e-01 5.106189e-02 -3.213694e-02 -2.232515e-01 3.161972e-01
<VARIANCE> 39
 1.095766e+01 1.894054e+01 2.168615e+01 1.773073e+01 2.377114e+01 2.220808e+01 2.771217e+01 2.578814e+01 3.227639e+01 2.834818e+01 2.430572e+01 1.881965e+01 2.924023e+01 2.594066e+00 1.362697e+00 2.992017e+00 3.160126e+00 2.351163e+00 2.459672e+00 5.659786e+00 5.536562e+00 3.299407e+00 3.065660e+00 3.224637e+00 2.663326e+00 2.126794e+00 2.871958e-01 5.766241e-01 7.501438e-01 6.682981e-01 6.727991e-01 8.381662e-01 1.084992e+00 1.011204e+00 1.010525e+00 1.029669e+00 8.545722e-01 8.586369e-01 3.946989e-01
<GCONST> 1.218849e+02
<MIXTURE> 17 3.661889e-02
<MEAN> 39
 8.392340e+00 4.778632e+00 -3.292439e+00 -5.552597e+00 -5.826583e-01 5.736508e+00 -1.625147e+00 -7.132471e+00 -3.860838e+00 -8.492427e-01 2.980114e+00 1.577145e+00 -1.795665e+00 1.345243e+00 -2.380055e+00 -1.663374e+00 -3.855338e+00 -1.152400e+00 -1.385185e-01 -1.274390e+00 3.543816e-01 1.809105e+00 1.404339e+00 1.615098e+00 4.876387e-01 4.104701e+00 1.326375e-02 -2.157883e-01 -4.962967e-03 1.784118e-01 1.026906e-01 -2.353080e-01 -1.086744e-01 2.480212e-01 1.206577e-01 7.181370e-02 -2.421390e-01 -3.079866e-01 1.035975e-01
<VARIANCE> 39
 1.224752e+01 1.374923e+01 1.989373e+01 4.171051e+01 2.653040e+01 2.813700e+01 3.099471e+01 2.228519e+01 2.291319e+01 3.065687e+01 2.678842e+01 1.886611e+01 1.770475e+01 2.296761e+00 3.961334e+00 4.620412e+00 7.874495e+00 4.455319e+00 4.355345e+00 5.568611e+00 5.049698e+00 5.261622e+00 3.932211e+00 4.331984e+00 2.915485e+00 3.736479e+00 3.716753e-01 2.633318e-01 3.216814e-01 5.573177e-01 4.469779e-01 4.178101e-01 5.651737e-01 5.493491e-01 6.699133e-01 4.572471e-01 4.277419e-01 3.587412e-01 2.861206e-01
<GCONST> 1.201202e+02
<STATE> 4
<NUMMIXES> 17
<MIXTURE> 1 8.859919e-02
<MEAN> 39
 1.014114e+01 -1.141101e+00 -5.114008e+00 -1.256249e+01 -6.309019e+00 9.964088e+00 6.948205e-01 -8.167536e+00 4.994918e-01 3.310449e+00 6.267365e+00 1.219587e+00 7.155650e+00 2.722770e+00 -2.710451e+00 -1.646976e+00 -4.761842e+00 -2.589290e+00 2.919840e+00 -4.007810e-01 -7.874461e-01 1.284266e+00 9.067061e-01 1.593299e+00 -1.093797e+00 3.774461e+00 -7.528937e-01 6.019293e-01 5.526547e-01 1.441738e+00 1.166183e+00 -1.941905e-01 2.487238e-01 3.631697e-01 -2.528731e-01 -4.801975e-01 -7.568875e-01 -4.546019e-01 -1.633495e+00
<VARIANCE> 39
 1.049962e+01 1.260117e+01 1.671978e+01 3.519265e+01 2.397853e+01 3.474395e+01 4.263863e+01 3.338871e+01 3.136021e+01 2.762320e+01 2.339677e+01 1.609906e+01 1.162446e+01 2.372115e+00 4.052227e+00 3.195820e+00 5.304561e+00 4.229725e+00 5.480473e+00 6.879187e+00 5.371389e+00 6.136734e+00 5.198529e+00 4.380727e+00 2.717804e+00 4.829112e+00 4.136818e-01 3.032309e-01 2.720361e-01 4.150470e-01 3.384364e-01 5.743298e-01 4.844965e-01 6.384951e-01 5.767719e-01 4.255761e-01 3.833017e-01 3.298277e-01 1.764944e-01
<GCONST> 1.191598e+02
<MIXTURE> 2 3.592001e-02
<MEAN> 39
 -3.409465e+00 7.115494e-01 9.997129e-01 6.957544e-01 1.921248e+00 -1.178993e+00 -3.010663e-01 -4.431066e-02 3.972753e+00 9.678937e-01 1.090655e-01 1.157389e+00 2.918368e+00 -4.309398e-01 -1.433792e+00 -7.907259e-01 -2.365968e+00 -1.115741e+00 -1.254032e+00 -3.993367e-01 1.324852e+00 1.125938e+00 4.840468e-01 6.808373e-01 9.679594e-01 3.769875e+00 6.064308e-01 9.346083e-01 1.505209e-01 6.566524e-01 1.682223e-01 2.494789e-01 -2.792551e-01 -6.006834e-01 -8.935553e-01 -3.412297e-01 -7.838702e-02 -3.623681e-01 -1.338276e+00
<VARIANCE> 39
 3.926984e+01 2.516911e+01 3.062518e+01 3.239839e+01 2.694883e+01 3.717233e+01 5.952861e+01 4.364502e+01 2.685114e+01 2.932612e+01 3.198573e+01 2.277668e+01 2.659557e+01 1.050199e+01 5.516064e+00 5.446337e+00 5.806893e+00 7.390851e+00 4.888840e+00 7.263629e+00 5.539942e+00 4.304763e+00 5.238042e+00 3.177660e+00 3.487593e+00 4.909986e+00 4.482590e-01 4.411950e-01 8.246820e-01 7.629932e-01 7.853149e-01 7.662029e-01 1.041638e+00 1.122209e+00 7.021694e-01 8.943093e-01 7.696295e-01 5.665772e-01 4.752298e-01
<GCONST> 1.342183e+02
<MIXTURE> 3 4.901612e-02
<MEAN> 39
 1.147140e+01 9.588165e-01 -1.200065e+01 -1.169551e+00 4.254714e+00 6.043667e-02 -8.082746e+00 -6.219756e+00 2.187157e+00 -1.097049e+00 4.242230e+00 5.313110e+00 3.410902e+00 3.592229e+00 -2.128952e+00 -4.172721e+00 -9.707411e-01 -6.623243e-01 -1.076119e+00 -4.155413e+00 4.629837e-01 2.973457e+00 -3.384829e-02 1.496531e+00 7.392374e-01 2.937325e+00 -3.664149e-01 4.187808e-01 8.601451e-01 7.812907e-01 4.361986e-02 1.340563e-01 3.343367e-01 5.876353e-01 -2.146734e-01 -4.798075e-01 -6.652778e-01 -5.881525e-01 -1.115251e+00
<VARIANCE> 39
 1.347586e+01 1.201693e+01 2.210167e+01 2.537133e+01 2.095386e+01 1.834517e+01 4.377450e+01 3.286470e+01 3.429550e+01 3.483487e+01 3.484298e+01 2.053184e+01 1.339018e+01 2.594671e+00 3.164029e+00 3.467274e+00 4.011531e+00 4.105576e+00 3.685489e+00 8.936245e+00 7.065050e+00 5.651731e+00 5.556824e+00 4.733380e+00 3.864439e+00 2.880140e+00 3.443055e-01 2.174382e-01 2.976506e-01 2.954126e-01 4.256519e-01 2.689665e-01 6.003294e-01 4.599960e-01 6.185257e-01 5.627242e-01 4.664952e-01 3.717071e-01 2.496960e-01
<GCONST> 1.189086e+02
<MIXTURE> 4 6.536797e-02
<MEAN> 39
 6.111881e+00 -4.413345e+00 5.416161e+00 3.081375e+00 -6.081865e+00 -8.057638e+00 -7.285046e+00 2.475070e+00 1.648518e+00 -1.251272e+00 8.871902e-01 2.103180e+00 7.460896e+00 2.282372e+00 -3.587737e+00 1.566009e+00 -1.932683e+00 -4.404165e+00 -2.223428e+00 -2.558761e+00 2.211353e+00 -1.947787e-01 -2.112049e-02 9.582435e-01 6.280326e-01 4.702547e+00 -4.002395e-01 9.440767e-01 1.990352e-02 3.590907e-01 7.565511e-01 9.302800e-01 6.458008e-01 -3.469039e-01 -5.196500e-01 3.413648e-02 -2.130169e-02 -3.774250e-01 -1.689781e+00
<VARIANCE> 39
 1.019886e+01 1.957460e+01 1.470725e+01 1.490015e+01 2.088829e+01 1.265390e+01 2.204710e+01 1.810966e+01 1.751574e+01 1.630451e+01 1.356378e+01 1.202725e+01 1.345030e+01 2.628603e+00 3.264063e+00 3.273873e+00 3.932843e+00 3.524595e+00 5.163321e+00 5.974384e+00 4.652327e+00 5.572412e+00 4.545305e+00 3.678538e+00 2.573357e+00 4.106306e+00 3.274983e-01 3.337341e-01 2.233388e-01 2.824062e-01 4.078023e-01 2.972938e-01 5.619652e-01 3.718227e-01 4.003964e-01 3.350026e-01 3.045291e-01 2.976073e-01 2.772196e-01
<GCONST> 1.107558e+02
<MIXTURE> 5 6.107824e-02
<MEAN> 39
 8.849204e+00 5.028327e+00 -4.097980e+00 -1.186922e+01 -5.288505e+00 5.768940e+00 3.065676e+00 -4.735353e+00 -2.242816e+00 -1.122986e+00 1.629189e+00 4.519809e+00 2.628886e+00 2.989004e+00 -3.375947e-01 -1.092615e+00 -6.234469e+00 -3.506442e+00 2.195011e+00 -1.768685e-01 -6.480396e-01 2.535586e-01 4.723364e-01 1.341458e+00 1.048240e+00 2.718068e+00 -2.303391e-01 5.642437e-01 5.663726e-01 8.642168e-01 4.942265e-01 2.839382e-01 9.149836e-02 5.046631e-02 -2.301666e-01 -3.379667e-01 -3.855498e-01 -5.415026e-01 -1.353513e+00
<VARIANCE> 39
 1.106064e+01 9.072872e+00 1.444940e+01 2.836897e+01 3.202298e+01 2.297304e+01 2.694135e+01 3.007755e+01 2.220261e+01 2.489982e+01 2.195218e+01 1.489074e+01 1.071570e+01 2.259869e+00 3.340866e+00 3.103734e+00 5.657126e+00 6.903465e+00 5.250973e+00 4.913362e+00 5.536936e+00 4.178057e+00 4.928301e+00 3.983157e+00 2.654716e+00 3.765402e+00 3.374899e-01 2.717783e-01 2.364686e-01 5.316676e-01 4.137352e-01 4.140308e-01 3.007731e-01 5.036303e-01 4.394219e-01 3.734338e-01 3.226068e-01 2.661492e-01 2.042315e-01
<GCONST> 1.146013e+02
<MIXTURE> 6 8.522239e-02
<MEAN> 39
 8.548357e+00 -7.582704e+00 -3.969338e+00 -7.559205e+00 -6.380054e-01 -3.499393e+00 -3.495427e+00 1.781104e+00 5.336939e+00 7.306039e+00 -2.522115e+00 -5.335231e+00 1.056356e+01 1.289534e+00 -3.528779e+00 -1.000856e+00 -2.839007e+00 -7.814392e-01 -5.019270e-01 4.427507e-01 2.374312e+00 1.091564e+00 8.395797e-01 -2.089772e+00 -5.433589e-01 3.614162e+00 -6.177986e-01 1.163102e+00 5.605523e-01 1.481095e+00 6.405373e-01 7.516914e-01 4.242119e-01 -5.488318e-01 -8.606349e-01 -1.155648e+00 -8.905872e-02 2.996028e-01 -1.872414e+00
<VARIANCE> 39
 7.056093e+00 1.485174e+01 2.153332e+01 2.829250e+01 1.656707e+01 4.043187e+01 3.580796e+01 3.816306e+01 3.112666e+01 3.185738e+01 3.535128e+01 1.858188e+01 9.789968e+00 2.054207e+00 2.979318e+00 3.222911e+00 4.063056e+00 4.441270e+00 4.883469e+00 5.723919e+00 5.489475e+00 4.783512e+00 5.520610e+00 3.403116e+00 3.350916e+00 3.556659e+00 2.926465e-01 2.611021e-01 3.675347e-01 4.584926e-01 3.148054e-01 5.466316e-01 5.826450e-01 6.306593e-01 5.602061e-01 5.586391e-01 6.981785e-01 4.335230e-01 2.114103e-01
<GCONST> 1.189971e+02
<MIXTURE> 7 8.297633e-02
<MEAN> 39
 3.558261e-01 1.529998e+00 -2.815827e+00 1.174141e+00 3.850763e+00 1.048714e+00 7.999667e-03 -3.592703e+00 9.301242e-01 2.469851e+00 2.599688e+00 1.001353e+00 2.215689e+00 4.668077e+00 -4.886318e-01 -2.489393e+00 -3.214579e+00 -1.267539e+00 -4.505323e-01 -2.904474e+00 -1.159097e+00 -1.935535e-01 1.197564e-01 6.136894e-01 5.295764e-01 3.646759e+00 4.924663e-01 5.038168e-01 8.665922e-02 1.557101e-01 3.744323e-02 3.415704e-01 -3.726120e-01 1.706442e-01 -1.639513e-01 -4.417608e-01 -2.705956e-01 -3.398652e-02 -1.435660e+00
<VARIANCE> 39
 1.475807e+01 1.602156e+01 1.629340e+01 2.535377e+01 1.925374e+01 2.244048e+01 2.331750e+01 2.692171e+01 2.522017e+01 2.336638e+01 1.745497e+01 1.641435e+01 1.898094e+01 2.653099e+00 4.920503e+00 6.879266e+00 7.842534e+00 5.084631e+00 5.664854e+00 8.158877e+00 5.417887e+00 5.063948e+00 5.324236e+00 3.203062e+00 4.408938e+00 5.552485e+00 3.779858e-01 4.146518e-01 4.328081e-01 5.466499e-01 5.949613e-01 6.145446e-01 7.723975e-01 8.968941e-01 8.114026e-01 6.108278e-01 4.360008e-01 3.862645e-01 4.155029e-01
<GCONST> 1.239911e+02
<MIXTURE> 8 4.360755e-02
<MEAN> 39
 2.318995e+00 -1.548997e+00 1.260765e+01 3.388973e+00 -8.000881e+00 -7.128710e+00 -6.477132e-01 -8.875333e-02 -7.212012e+00 -2.912060e+00 3.127187e+00 1.139956e+00 5.055636e+00 1.187569e+00 -1.541121e+00 3.619859e+00 -3.114552e+00 -4.359409e+00 -8.270077e-01 -3.668237e-01 -7.306556e-01 -2.948458e+00 5.322780e-01 5.836905e-01 1.851194e-01 3.736588e+00 -1.772234e-01 9.761142e-01 -4.240715e-01 1.182493e-01 8.888192e-01 1.040043e+00 -1.657767e-01 -6.320527e-01 3.154295e-01 3.702345e-01 -3.052166e-01 -4.564258e-01 -1.605750e+00
<VARIANCE> 39
 1.225595e+01 1.470862e+01 3.358493e+01 3.564122e+01 2.601657e+01 3.232211e+01 2.572487e+01 3.168851e+01 2.521838e+01 2.484244e+01 2.267820e+01 2.115564e+01 1.763782e+01 3.610605e+00 3.385939e+00 4.258137e+00 4.772031e+00 3.337339e+00 7.140204e+00 4.893224e+00 5.946710e+00 5.733967e+00 4.748974e+00 3.727450e+00 3.061586e+00 5.181793e+00 3.776172e-01 4.746602e-01 3.568572e-01 5.245905e-01 5.573729e-01 6.521484e-01 5.518312e-01 7.787623e-01 4.535387e-01 4.106053e-01 4.000974e-01 5.379118e-01 3.310713e-01
<GCONST> 1.227480e+02
<MIXTURE> 9 6.428099e-02
<MEAN> 39
 1.066986e+01 -6.913401e+00 -6.398663e+00 -1.300562e+01 -5.116527e+00 1.150851e+01 -1.156800e+00 -3.108471e+00 8.907746e-01 6.031945e+00 6.206814e+00 -5.656146e+00 1.026482e+01 9.917923e-01 -2.613478e+00 -7.646318e-01 -1.830747e+00 -3.711938e-01 2.076580e+00 -3.463963e-01 9.684440e-01 7.219253e-01 4.760105e-01 -5.728035e-01 -2.111677e+00 2.007137e+00 -9.150865e-01 1.114163e+00 6.119480e-01 1.746577e+00 1.184798e+00 -7.992361e-01 4.207299e-01 -7.242300e-02 -1.952492e-01 -7.706565e-01 -9.871216e-01 3.700559e-01 -1.661295e+00
<VARIANCE> 39
 9.973022e+00 1.493536e+01 1.610620e+01 3.047082e+01 2.331193e+01 2.901133e+01 3.627922e+01 3.015838e+01 3.661230e+01 3.075580e+01 3.635128e+01 2.278370e+01 1.268238e+01 1.827633e+00 1.884032e+00 1.455027e+00 3.472352e+00 2.902452e+00 3.674510e+00 3.078964e+00 2.507882e+00 2.632820e+00 3.556800e+00 3.526148e+00 2.160733e+00 1.496192e+00 2.679085e-01 2.628199e-01 3.162845e-01 5.209620e-01 2.942232e-01 5.672148e-01 4.549529e-01 5.465837e-01 6.611394e-01 5.557846e-01 5.866360e-01 4.132263e-01 2.318201e-01
<GCONST> 1.130962e+02
<MIXTURE> 10 5.764812e-02
<MEAN> 39
 8.490511e+00 6.279111e+00 -3.682768e+00 -1.099612e+01 -1.902631e+00 5.471402e+00 4.440536e-01 -4.422695e+00 -3.367374e+00 -2.434483e+00 2.708288e+00 2.724505e+00 4.195240e-01 2.965046e+00 4.789413e-01 -9.940743e-01 -5.016761e+00 -1.902532e+00 1.042622e+00 -5.808204e-01 -2.279305e-01 -8.902792e-01 3.067611e-02 7.586257e-01 3.854900e-01 1.765007e+00 -3.804744e-01 1.451021e-01 2.814271e-01 8.893049e-01 2.985596e-01 4.379828e-02 5.120853e-02 5.787973e-02 -7.376780e-02 7.993784e-02 -3.111044e-01 -3.190680e-01 -9.953822e-01
<VARIANCE> 39
 1.287780e+01 1.231364e+01 2.224580e+01 4.259233e+01 3.117282e+01 2.510135e+01 3.152065e+01 2.807127e+01 2.912645e+01 2.912238e+01 2.918710e+01 2.057089e+01 1.372010e+01 3.962566e+00 3.323368e+00 3.903396e+00 6.452572e+00 6.018893e+00 4.043583e+00 5.692291e+00 6.580768e+00 4.954393e+00 4.525574e+00 3.988486e+00 3.526466e+00 3.804506e+00 3.307426e-01 3.421835e-01 3.656251e-01 6.768727e-01 3.577738e-01 3.818288e-01 4.279979e-01 5.069225e-01 6.355326e-01 4.134785e-01 4.345676e-01 3.049029e-01 4.002731e-01
<GCONST> 1.211470e+02
<MIXTURE> 11 7.000478e-02
<MEAN> 39
 9.736458e-01 1.331746e+00 -1.778565e-01 3.352405e+00 1.948796e+00 -6.158414e-01 -1.407601e+00 -8.522296e-01 3.671325e+00 4.915808e-01 9.164228e-01 -1.052700e+00 1.306320e+00 4.797637e+00 -1.301386e+00 -1.460394e+00 -3.270448e+00 -1.734690e+00 -2.259139e+00 -2.683279e+00 -1.477268e-01 -1.348235e+00 2.819537e-02 -9.413002e-01 -6.208981e-01 4.391037e+00 6.503645e-02 9.395503e-02 -6.860495e-02 1.194693e-02 9.500998e-02 2.463641e-01 1.963829e-02 2.478513e-01 -4.226241e-01 6.220551e-02 -2.970518e-02 9.216749e-02 -1.268063e+00
<VARIANCE> 39
 1.989831e+01 1.720940e+01 2.063790e+01 2.516535e+01 2.267486e+01 2.604010e+01 3.195976e+01 3.417570e+01 2.729074e+01 2.047894e+01 2.533007e+01 1.541490e+01 2.167958e+01 2.349209e+00 4.279424e+00 7.233876e+00 8.791135e+00 5.145199e+00 8.464312e+00 6.478853e+00 5.902175e+00 5.021546e+00 6.208548e+00 6.031958e+00 4.131610e+00 7.005979e+00 4.767532e-01 3.893150e-01 3.774170e-01 4.874352e-01 4.924967e-01 7.046263e-01 7.953169e-01 1.043560e+00 7.794198e-01 5.172485e-01 5.486584e-01 3.827367e-01 5.480623e-01
<GCONST> 1.273005e+02
<MIXTURE> 12 5.659969e-02
<MEAN> 39
 9.318057e+00 -4.153114e+00 -7.529404e+00 -7.277838e+00 1.374966e+00 5.381410e-01 -2.229146e+00 -1.715192e+00 3.241536e+00 4.063980e+00 -3.279355e+00 -4.604944e+00 7.834422e+00 3.173769e+00 -3.564264e+00 -2.458685e+00 -4.332677e+00 -1.885365e-01 -1.241307e-01 -3.913228e-01 2.857368e-01 -3.082122e-01 8.419455e-01 -2.478454e+00 -1.087454e+00 4.957522e+00 -1.002407e+00 4.528369e-01 7.344970e-01 1.326156e+00 5.318462e-01 5.038977e-01 2.795969e-01 7.436451e-02 -2.705691e-01 -4.460395e-01 1.980860e-01 4.266733e-01 -1.868072e+00
<VARIANCE> 39
 1.150777e+01 1.695114e+01 1.899071e+01 3.158612e+01 1.749782e+01 3.789736e+01 2.650875e+01 2.002120e+01 2.361757e+01 3.498239e+01 2.971541e+01 1.277230e+01 9.435535e+00 2.195858e+00 3.458582e+00 3.837618e+00 6.388752e+00 5.559881e+00 5.807635e+00 6.765467e+00 6.081104e+00 6.336004e+00 5.862639e+00 4.829231e+00 4.038102e+00 6.363759e+00 3.692043e-01 3.167086e-01 3.382688e-01 4.369520e-01 3.348607e-01 5.037356e-01 5.037138e-01 5.592524e-01 5.735260e-01 5.575056e-01 6.340109e-01 3.520769e-01 2.740206e-01
<GCONST> 1.208342e+02
<MIXTURE> 13 6.010900e-02
<MEAN> 39
 3.646461e+00 -2.738536e+00 -1.768541e-01 -2.612199e-01 -3.109401e+00 -5.044261e+00 -2.787522e+00 1.988314e+00 4.841259e+00 1.519771e+00 7.036217e-01 1.701176e-01 8.139596e+00 2.087565e+00 -3.932440e+00 -1.017373e+00 -3.829601e+00 -3.302306e+00 -2.069946e+00 -2.069234e-01 2.448438e+00 1.396708e+00 8.603277e-01 -2.162357e-01 4.799327e-01 5.918361e+00 1.717120e-01 8.656242e-01 3.928719e-01 6.459530e-01 5.371226e-01 6.222355e-01 7.341640e-02 -6.030378e-01 -8.525727e-01 -4.043826e-01 -3.294386e-01 -4.607467e-01 -1.659501e+00
<VARIANCE> 39
 1.696433e+01 1.454527e+01 1.907191e+01 1.895884e+01 2.604378e+01 2.835006e+01 2.928821e+01 3.366068e+01 2.318383e+01 1.772725e+01 1.727206e+01 1.348489e+01 1.508346e+01 2.694968e+00 3.383273e+00 5.074394e+00 5.695075e+00 4.489325e+00 6.735842e+00 9.543069e+00 7.276757e+00 5.971165e+00 5.466366e+00 4.156560e+00 4.337247e+00 3.147419e+00 3.217476e-01 3.421585e-01 3.631605e-01 5.251493e-01 5.471505e-01 6.099838e-01 6.893724e-01 7.491618e-01 5.445364e-01 5.010226e-01 5.071555e-01 3.399632e-01 2.443692e-01
<GCONST> 1.214171e+02
<MIXTURE> 14 5.233352e-02
<MEAN> 39
 3.718537e+00 -2.665441e+00 9.430843e+00 6.294837e+00 -5.376097e+00 -9.082334e+00 -5.522027e+00 1.853118e+00 -2.492953e+00 -5.483354e+00 1.339160e+00 2.559256e+00 4.771391e+00 1.599125e+00 -2.421987e+00 3.485814e+00 -1.487124e+00 -5.260718e+00 -1.512815e+00 -1.764249e+00 1.251559e+00 -2.486216e+00 -1.416068e+00 1.937469e+00 2.341648e-01 4.052503e+00 -2.797662e-01 1.031686e+00 -2.076268e-02 -6.262244e-02 4.449449e-01 1.278679e+00 5.483169e-01 -6.305212e-01 -5.647172e-01 4.548859e-01 1.042116e-01 -5.000633e-01 -1.509710e+00
<VARIANCE> 39
 1.344245e+01 1.425116e+01 1.938830e+01 2.039587e+01 2.470601e+01 1.619108e+01 2.555580e+01 1.840481e+01 2.188022e+01 2.085044e+01 1.637258e+01 1.363693e+01 1.467420e+01 2.940199e+00 2.974727e+00 4.140744e+00 4.394943e+00 4.638199e+00 4.519869e+00 5.175775e+00 6.101371e+00 5.433883e+00 4.806783e+00 3.619275e+00 2.959754e+00 3.714990e+00 3.752486e-01 3.293059e-01 3.220077e-01 3.820123e-01 4.997604e-01 3.898848e-01 5.819283e-01 4.299921e-01 5.572637e-01 3.935786e-01 4.251178e-01 3.450034e-01 2.827399e-01
<GCONST> 1.158792e+02
<MIXTURE> 15 3.751208e-02
<MEAN> 39
 1.108529e+01 -1.574045e+00 -7.961483e+00 -2.216096e+00 1.990599e+00 -1.713870e+00 -8.624375e+00 -3.593415e+00 -2.238382e-01 3.406070e+00 5.934620e+00 -1.013610e+00 4.363646e+00 3.167675e+00 -2.375602e+00 -2.611305e+00 -1.459653e+00 -1.020139e+00 -1.874815e+00 -2.436924e+00 1.546419e+00 8.801346e-01 1.060828e+00 7.035053e-01 -7.000024e-01 2.831878e+00 -6.294441e-01 5.580525e-01 8.076816e-01 8.462399e-01 1.027875e-01 2.312388e-01 7.030495e-01 2.289990e-01 -3.257366e-01 -6.672716e-01 -7.424760e-01 -1.321621e-01 -1.288711e+00
<VARIANCE> 39
 1.188161e+01 1.231378e+01 3.389041e+01 3.003476e+01 1.974298e+01 2.274484e+01 4.593777e+01 3.443391e+01 2.969833e+01 3.308641e+01 2.729410e+01 2.716750e+01 1.188705e+01 4.156455e+00 3.668505e+00 5.835210e+00 4.263299e+00 4.974101e+00 4.883747e+00 8.921554e+00 5.906849e+00 8.482349e+00 4.976957e+00 4.920722e+00 3.862011e+00 3.777688e+00 3.862581e-01 2.159632e-01 3.905212e-01 3.590691e-01 3.655732e-01 3.745327e-01 5.873410e-01 6.847658e-01 6.560220e-01 5.479396e-01 4.563547e-01 4.123833e-01 2.602152e-01
<GCONST> 1.227586e+02
<MIXTURE> 16 4.710765e-02
<MEAN> 39
 1.029912e+01 -4.864112e+00 -7.338048e+00 -1.225903e+01 -2.528036e+00 7.824228e+00 1.995037e+00 -5.022185e+00 7.889264e-01 5.535978e+00 6.844335e+00 -7.596806e+00 9.351357e+00 1.907187e+00 -2.799072e+00 -1.811148e+00 -2.818185e+00 -5.704345e-01 1.464016e+00 3.737443e-01 -1.945297e-02 9.070062e-01 3.368822e-01 4.203261e-01 -3.216267e+00 3.260256e+00 -1.063895e+00 7.565640e-01 6.972827e-01 1.734962e+00 9.759386e-01 -2.623704e-01 5.242570e-02 1.972631e-01 -9.999850e-02 -6.725801e-01 -9.826177e-01 4.682510e-01 -1.836639e+00
<VARIANCE> 39
 7.222664e+00 1.420014e+01 2.094744e+01 2.155962e+01 2.136715e+01 1.811784e+01 5.573608e+01 3.281361e+01 3.660265e+01 2.087608e+01 2.494026e+01 1.942261e+01 1.003533e+01 2.472342e+00 2.633059e+00 2.971826e+00 4.396115e+00 3.662894e+00 2.964577e+00 6.382364e+00 4.880942e+00 4.209239e+00 3.922023e+00 3.816149e+00 2.373715e+00 3.072913e+00 2.851498e-01 3.010274e-01 3.705384e-01 3.142920e-01 3.600443e-01 4.037187e-01 5.952133e-01 6.730234e-01 6.029386e-01 3.985822e-01 5.265961e-01 4.852363e-01 2.415377e-01
<GCONST> 1.157559e+02
<MIXTURE> 17 4.261042e-02
<MEAN> 39
 2.781176e+00 -7.375270e-01 1.367310e+01 -4.421308e-02 -1.030000e+01 -7.235960e+00 -1.285894e+00 -2.006463e+00 -8.840589e+00 1.656396e+00 2.901850e+00 -1.911722e+00 4.914117e+00 1.213382e+00 -1.142594e+00 3.533267e+00 -4.617158e+00 -4.071733e+00 -8.774312e-01 -1.178216e+00 -1.999599e+00 -3.158283e+00 2.819173e+00 -1.168926e+00 1.452807e-02 3.703707e+00 -2.969310e-01 9.517547e-01 -4.869559e-01 2.451619e-01 1.045022e+00 9.745910e-01 -3.248651e-01 -5.739507e-01 6.650895e-01 -1.285478e-02 -6.865688e-01 -8.093630e-02 -1.632474e+00
<VARIANCE> 39
 1.101871e+01 1.901020e+01 1.917659e+01 3.081280e+01 1.729138e+01 3.023611e+01 2.098301e+01 2.897501e+01 3.072595e+01 2.318462e+01 2.030088e+01 1.790503e+01 1.632118e+01 3.326524e+00 3.876728e+00 3.280796e+00 3.777440e+00 3.447501e+00 6.221677e+00 6.234800e+00 8.682652e+00 4.458508e+00 4.233364e+00 3.992148e+00 3.982559e+00 5.012673e+00 3.635131e-01 3.975511e-01 3.498935e-01 6.364798e-01 3.226703e-01 7.187104e-01 5.230365e-01 5.374318e-01 6.329989e-01 5.830174e-01 4.324168e-01 3.930888e-01 4.237937e-01
<GCONST> 1.209827e+02
<TRANSP> 5
 0.000000e+00 1.000000e+00 0.000000e+00 0.000000e+00 0.000000e+00
 0.000000e+00 4.600292e-01 5.399708e-01 0.000000e+00 0.000000e+00
 0.000000e+00 0.000000e+00 2.889470e-01 7.110531e-01 0.000000e+00
 0.000000e+00 0.000000e+00 0.000000e+00 3.253894e-01 6.746106e-01
 0.000000e+00 0.000000e+00 0.000000e+00 0.000000e+00 0.000000e+00
<ENDHMM>
~h "d"
<BEGINHMM>
<NUMSTATES> 5
<STATE> 2
<NUMMIXES> 17
<MIXTURE> 1 5.766638e-02
<MEAN> 39
 -5.356233e+00 1.062140e+01 5.671559e+00 1.379481e+01 7.971677e+00 6.016210e+00 9.001178e-01 -2.635868e+00 -3.337666e-02 -3.727670e+00 -1.769256e+00 -3.690943e+00 -2.100715e+01 -2.208499e+00 -3.159662e+00 -1.941309e+00 -2.279215e+00 5.447561e-01 1.157562e+00 1.965203e+00 2.020360e+00 1.996988e+00 2.014814e+00 1.922029e+00 1.293922e+00 2.672894e+00 4.743357e-01 -8.796113e-01 -6.549926e-03 -1.474141e+00 -1.380256e+00 -1.159706e+00 -2.159251e-01 2.979885e-02 -5.818125e-02 2.658969e-01 2.778158e-01 5.557367e-01 2.725491e+00
<VARIANCE> 39
 8.517632e+00 9.803680e+00 1.144929e+01 1.152895e+01 1.167954e+01 1.615990e+01 2.557454e+01 1.699857e+01 1.883746e+01 1.964972e+01 1.604948e+01 1.647734e+01 7.783148e+00 1.302188e+00 2.414651e+00 1.674397e+00 3.714908e+00 2.225991e+00 3.124762e+00 2.742156e+00 3.304839e+00 2.206053e+00 2.449725e+00 2.764662e+00 2.384833e+00 9.532013e+00 4.484192e-01 5.553725e-01 5.002210e-01 5.135101e-01 6.689374e-01 6.121882e-01 7.231110e-01 4.530973e-01 5.823809e-01 4.998461e-01 4.693459e-01 4.189161e-01 6.982757e-01
<GCONST> 1.108108e+02
<MIXTURE> 2 8.138330e-02
<MEAN> 39
 -5.971592e+00 -2.853016e+00 3.621210e+00 1.873273e+00 4.112450e+00 4.807490e+00 1.820115e+00 3.469880e-01 2.437716e+00 -2.071502e-01 2.413191e+00 5.811968e-01 -3.546148e+00 -2.009696e+00 -3.166341e+00 -1.336712e+00 -3.317354e+00 -5.657857e-01 -9.151836e-02 1.182069e+00 2.322757e+00 1.876033e+00 1.625780e+00 1.973194e+00 1.470760e+00 5.647008e+00 1.081354e+00 6.546847e-01 1.468603e-01 -1.320511e-02 -1.010406e+00 -1.090920e+00 -4.200349e-01 -2.012034e-01 -4.221987e-01 -1.392134e-01 -6.465926e-01 -2.871486e-02 3.017849e-01
<VARIANCE> 39
 2.262163e+01 3.782291e+01 4.049993e+01 4.924378e+01 4.275227e+01 4.480367e+01 3.880340e+01 2.788881e+01 3.160393e+01 2.435661e+01 2.598175e+01 2.048381e+01 4.132731e+01 4.288948e+00 3.785368e+00 4.092654e+00 5.383580e+00 5.301295e+00 4.807388e+00 5.004478e+00 4.279189e+00 3.605746e+00 4.063037e+00 3.333052e+00 2.839779e+00 5.624658e+00 7.126279e-01 8.143520e-01 8.615557e-01 9.935877e-01 1.356295e+00 1.107131e+00 1.078132e+00 9.468702e-01 8.480997e-01 7.638248e-01 7.164086e-01 6.459430e-01 5.763345e-01
<GCONST> 1.340291e+02
<MIXTURE> 3 5.058559e-02
<MEAN> 39
 4.420243e-01 4.255664e+00 6.117465e+00 7.056556e+00 2.541643e+00 2.206072e+00 -5.966187e-01 -4.287440e+00 -4.388872e+00 -4.696702e+00 -3.844382e+00 -2.691828e+00 -9.147806e+00 -2.074062e+00 -3.190616e+00 -2.466279e-01 -2.715856e+00 -1.116917e-01 1.916453e-01 4.867572e-02 1.840853e+00 1.330591e+00 9.173544e-01 2.117568e+00 1.506288e+00 4.485095e+00 3.032668e-01 -3.062270e-01 -1.572794e-01 -5.350122e-01 -7.643816e-01 -7.481675e-01 -2.469282e-01 2.837542e-01 4.084740e-01 4.392389e-01 2.605102e-01 2.712361e-01 1.167286e+00
<VARIANCE> 39
 2.211067e+01 4.133911e+01 4.250231e+01 3.969160e+01 4.887722e+01 4.403153e+01 3.954009e+01 3.926455e+01 3.128255e+01 2.502212e+01 2.806215e+01 1.757539e+01 2.594718e+01 3.966611e+00 3.360940e+00 4.352804e+00 5.478220e+00 7.667630e+00 5.041914e+00 6.897505e+00 6.475688e+00 5.871679e+00 5.378829e+00 4.690623e+00 3.236250e+00 3.542454e+00 5.096841e-01 6.982481e-01 7.544852e-01 8.098966e-01 1.127094e+00 1.095144e+00 1.306085e+00 1.200839e+00 9.884476e-01 7.009610e-01 6.781945e-01 5.084797e-01 4.375719e-01
<GCONST> 1.345973e+02
<MIXTURE> 4 3.507529e-02
<MEAN> 39
 -5.994057e+00 1.051279e+01 5.544765e+00 1.199319e+01 9.461127e+00 6.258611e+00 3.122000e+00 -3.822293e+00 -1.264896e+00 -2.730416e+00 -4.508943e+00 -1.831954e+00 -2.064237e+01 -1.532610e+00 -5.375045e+00 -1.376320e+00 -4.463982e+00 -1.861164e+00 4.683619e-01 6.251202e-01 1.733589e+00 2.174312e+00 1.555714e+00 2.400082e+00 2.092192e+00 7.189979e+00 1.185602e+00 -5.757982e-01 2.154482e-02 -7.052239e-01 -1.495451e+00 -1.534837e+00 -9.369957e-01 3.638537e-01 2.648285e-01 1.934094e-01 8.664243e-02 -2.170797e-02 2.240633e+00
<VARIANCE> 39
 9.697578e+00 1.449971e+01 1.458873e+01 1.289564e+01 1.345463e+01 1.817881e+01 1.612669e+01 2.230813e+01 1.971884e+01 2.094614e+01 2.257902e+01 1.152145e+01 1.193816e+01 1.371431e+00 2.016843e+00 1.846312e+00 2.162235e+00 2.952774e+00 3.793629e+00 3.974972e+00 3.198619e+00 2.837134e+00 3.041309e+00 2.200827e+00 2.247917e+00 1.583342e+00 2.203042e-01 3.202560e-01 3.788583e-01 4.354353e-01 4.171626e-01 5.008450e-01 4.273011e-01 5.658460e-01 5.037540e-01 3.831318e-01 4.773039e-01 3.763343e-01 2.795935e-01
<GCONST> 1.068087e+02
<MIXTURE> 5 7.720374e-02
<MEAN> 39
 -1.035324e+01 5.799959e+00 6.205289e-01 1.039924e+01 7.729696e+00 7.742867e+00 4.279592e+00 2.002078e+00 5.209203e+00 3.201593e+00 3.691902e+00 1.529048e+00 -2.274682e+01 -3.110726e-01 -2.708223e+00 -3.313392e-01 -3.323867e+00 -8.312857e-01 -5.716418e-01 2.746871e-01 8.004321e-01 7.357336e-01 6.904961e-01 1.217347e+00 9.842297e-01 6.510725e+00 9.688242e-01 4.412011e-02 4.274543e-01 -8.510556e-01 -1.013157e+00 -1.308910e+00 -7.952463e-01 -4.254427e-01 -6.495045e-01 -5.332447e-01 -5.741487e-01 -2.029621e-01 2.529264e+00
<VARIANCE> 39
 5.672505e+00 9.636069e+00 1.217212e+01 1.858922e+01 1.303637e+01 1.889676e+01 2.200762e+01 2.224857e+01 2.197260e+01 2.072592e+01 2.204878e+01 1.358928e+01 7.606181e+00 1.670678e+00 3.082348e+00 3.651474e+00 2.700423e+00 2.552676e+00 3.385775e+00 3.761233e+00 2.907530e+00 3.094301e+00 3.401413e+00 2.940207e+00 2.367450e+00 5.050813e+00 4.037552e-01 3.738859e-01 3.373902e-01 4.604448e-01 4.630019e-01 5.198431e-01 5.481262e-01 6.773198e-01 5.521040e-01 5.140578e-01 4.805609e-01 3.659288e-01 4.416617e-01
<GCONST> 1.110603e+02
<MIXTURE> 6 5.213594e-02
<MEAN> 39
 -1.615271e+00 -2.336925e-01 4.132956e+00 2.778241e+00 1.879321e+00 -1.269518e+00 3.057455e-01 -3.353050e+00 -1.418794e+00 -2.503392e+00 -2.967179e+00 1.173802e+00 -7.022118e-01 -7.426786e-01 -2.134735e+00 2.873735e-01 -2.087486e+00 -7.993723e-01 -7.755753e-01 -1.117511e+00 1.955710e+00 1.784820e+00 7.606974e-02 1.032062e+00 1.150676e+00 3.583188e+00 1.000455e+00 -1.384449e-01 -4.708247e-02 -4.357769e-01 -9.757874e-01 -1.179022e-01 -5.675680e-01 2.102946e-01 -2.553736e-02 3.530168e-01 2.533846e-01 -2.285785e-01 5.290283e-01
<VARIANCE> 39
 2.434352e+01 3.636903e+01 3.640576e+01 4.566366e+01 5.232312e+01 3.727539e+01 4.177389e+01 3.935120e+01 4.329230e+01 2.900946e+01 2.386761e+01 2.094961e+01 2.557130e+01 2.190858e+00 3.637505e+00 3.104094e+00 4.054300e+00 3.925860e+00 4.661404e+00 6.032803e+00 6.699693e+00 6.933954e+00 4.313673e+00 3.501896e+00 3.626596e+00 3.093995e+00 4.259717e-01 6.322724e-01 6.944324e-01 1.136376e+00 1.360829e+00 9.007872e-01 1.317346e+00 1.255478e+00 1.327579e+00 9.498013e-01 8.393778e-01 6.749700e-01 4.190640e-01
<GCONST> 1.336871e+02
<MIXTURE> 7 4.955668e-02
<MEAN> 39
 -1.033225e+01 1.742767e+00 2.040353e+00 2.211123e+00 7.845749e+00 4.815793e+00 4.352440e+00 1.395747e+00 1.602819e+00 2.623017e+00 1.625351e+00 1.985530e+00 -1.111583e+01 6.081198e-01 -1.301943e+00 -9.348784e-02 -2.621239e+00 -1.058806e+00 -2.140881e+00 -8.595148e-01 6.081472e-02 -2.164781e-01 -2.843026e-01 -2.162504e-01 2.649992e-01 7.180189e+00 7.519554e-01 3.253445e-01 1.361844e-01 5.363398e-02 -8.068451e-01 -7.483728e-01 -6.724664e-01 -1.998140e-01 3.334873e-02 -1.696080e-01 -2.714724e-01 -1.789199e-01 8.863968e-01
<VARIANCE> 39
 3.319083e+01 2.971068e+01 4.028688e+01 3.545576e+01 3.033652e+01 3.371985e+01 3.139854e+01 3.562742e+01 2.784254e+01 1.612097e+01 2.191102e+01 1.905743e+01 4.041910e+01 2.459743e+00 2.279337e+00 3.399055e+00 2.939505e+00 2.603157e+00 2.906492e+00 3.205946e+00 2.795767e+00 2.671738e+00 2.467916e+00 1.917840e+00 1.856104e+00 5.444718e+00 6.910338e-01 5.775422e-01 6.732404e-01 5.352417e-01 6.362266e-01 6.184644e-01 6.628358e-01 7.275249e-01 5.574332e-01 4.149453e-01 3.825878e-01 4.570498e-01 6.942873e-01
<GCONST> 1.215450e+02
<MIXTURE> 8 4.943610e-02
<MEAN> 39
 -1.552870e+00 1.443855e+01 8.107154e+00 1.444963e+01 6.680354e+00 2.251763e+00 -1.270730e+00 -7.959698e+00 -3.267936e+00 -4.996295e+00 -5.007643e+00 -2.807167e+00 -1.994568e+01 -2.160149e+00 -4.504560e+00 -1.216589e+00 -3.497778e+00 2.026985e-01 1.974104e+00 9.771236e-01 1.378946e+00 1.416399e+00 1.462096e+00 1.880082e+00 1.225501e+00 4.608419e+00 5.484401e-01 -1.809148e+00 -3.440073e-01 -1.418867e+00 -1.606552e+00 -1.050292e+00 -2.190459e-01 1.031724e+00 6.022096e-01 4.174491e-01 4.579772e-01 4.982005e-01 2.940853e+00
<VARIANCE> 39
 6.112459e+00 6.910506e+00 1.066313e+01 1.235560e+01 1.686696e+01 1.595892e+01 2.626462e+01 1.793657e+01 1.480688e+01 1.978812e+01 1.821239e+01 1.284801e+01 5.306420e+00 1.108029e+00 1.981732e+00 1.781767e+00 2.658323e+00 3.959090e+00 3.752201e+00 3.841292e+00 3.624601e+00 3.267021e+00 2.747916e+00 2.468690e+00 1.965950e+00 4.150181e+00 2.811791e-01 4.924529e-01 4.001451e-01 5.102344e-01 4.442543e-01 4.739675e-01 7.839527e-01 4.821177e-01 5.051420e-01 4.789213e-01 4.904801e-01 3.850721e-01 2.916487e-01
<GCONST> 1.073127e+02
<MIXTURE> 9 5.973725e-02
<MEAN> 39
 1.830482e+00 1.236355e+01 8.364019e+00 1.380265e+01 4.312323e+00 -2.251897e+00 -3.436092e+00 -6.970479e+00 -1.131588e+00 -2.740318e+00 -7.829302e+00 -3.446387e+00 -1.625036e+01 -1.500813e+00 -3.978574e+00 -9.615234e-01 -3.546651e+00 -9.342844e-01 9.876509e-01 6.836537e-01 1.514693e+00 6.110117e-01 4.285578e-01 2.110503e+00 1.561514e+00 4.985362e+00 2.662257e-01 -1.301581e+00 -5.006340e-01 -1.146452e+00 -9.037820e-01 -3.161065e-01 -2.744926e-01 7.582150e-01 4.141746e-01 2.856935e-01 6.572794e-01 2.847404e-01 2.095630e+00
<VARIANCE> 39
 8.545311e+00 1.385057e+01 1.462198e+01 1.902884e+01 2.394918e+01 2.589966e+01 2.546174e+01 2.900530e+01 2.435402e+01 2.932601e+01 2.821437e+01 2.332404e+01 8.072062e+00 1.278861e+00 2.379103e+00 2.342475e+00 3.829649e+00 4.254963e+00 4.627508e+00 4.213374e+00 4.249807e+00 3.939879e+00 3.250330e+00 3.570506e+00 2.637543e+00 2.675508e+00 3.097105e-01 3.733214e-01 4.109985e-01 4.086086e-01 4.714935e-01 6.018655e-01 7.957292e-01 6.372489e-01 5.414438e-01 5.068789e-01 5.213206e-01 4.669994e-01 3.212565e-01
<GCONST> 1.154900e+02
<MIXTURE> 10 1.060035e-01
<MEAN> 39
 -5.751129e+00 -3.273036e+00 3.905421e+00 1.602855e+00 5.443626e+00 5.806915e+00 3.793170e+00 -4.354308e-01 3.836764e-01 -5.778866e-01 -7.888393e-03 4.391204e-02 -3.627257e+00 -9.759361e-01 -3.449271e+00 -9.093047e-01 -3.992449e+00 -1.755794e+00 -8.174906e-01 1.133053e-01 1.071574e+00 9.413486e-01 1.126159e+00 1.427353e+00 1.238866e+00 7.000779e+00 1.241202e+00 5.696129e-01 3.152962e-01 1.916081e-01 -1.258511e+00 -1.326845e+00 -9.637884e-01 8.035985e-02 -7.604931e-02 -4.717921e-02 -2.695702e-01 -6.645393e-02 4.098997e-01
<VARIANCE> 39
 1.960168e+01 2.974191e+01 3.904581e+01 4.874836e+01 4.188379e+01 4.256037e+01 3.670720e+01 2.993776e+01 3.435905e+01 2.565459e+01 3.081276e+01 2.153195e+01 3.154498e+01 2.547024e+00 2.920107e+00 2.960960e+00 2.949607e+00 3.249657e+00 3.805833e+00 3.858376e+00 3.309594e+00 3.273817e+00 2.776455e+00 2.423770e+00 1.975114e+00 3.333826e+00 5.104249e-01 6.769429e-01 9.887435e-01 8.764948e-01 1.200557e+00 9.628779e-01 1.016022e+00 9.267172e-01 1.056102e+00 7.503073e-01 7.675946e-01 7.156199e-01 3.952302e-01
<GCONST> 1.281471e+02
<MIXTURE> 11 1.036714e-01
<MEAN> 39
 -1.143939e+01 6.748171e+00 7.519849e-01 8.916745e+00 8.054617e+00 6.662724e+00 4.967914e+00 7.849759e-01 3.157362e+00 3.172009e+00 2.743085e+00 2.465695e+00 -2.296103e+01 6.976422e-01 -2.079418e+00 1.523287e-01 -3.553347e+00 -9.781729e-01 -1.546013e+00 -9.436730e-01 -1.176230e-01 -4.666588e-01 -6.374096e-01 -1.649126e-01 1.458525e-01 7.798102e+00 8.655076e-01 -1.640339e-01 1.428598e-01 -7.129630e-01 -8.274531e-01 -9.455828e-01 -7.410733e-01 -7.190164e-02 -1.027543e-01 -2.214027e-01 -3.476869e-01 -2.140087e-01 2.106754e+00
<VARIANCE> 39
 7.620177e+00 1.059338e+01 1.112210e+01 1.792526e+01 1.563066e+01 1.823934e+01 2.049372e+01 2.212422e+01 2.603411e+01 1.842530e+01 1.941350e+01 1.474884e+01 8.017372e+00 1.207307e+00 1.914387e+00 2.791192e+00 2.247674e+00 2.774788e+00 3.049093e+00 3.184559e+00 3.038227e+00 2.143791e+00 2.187782e+00 2.232752e+00 2.041581e+00 2.741820e+00 3.628941e-01 3.001029e-01 2.771831e-01 3.924182e-01 3.587231e-01 3.900948e-01 4.795482e-01 4.410370e-01 5.162881e-01 4.085056e-01 3.757884e-01 3.868755e-01 3.413340e-01
<GCONST> 1.056796e+02
<MIXTURE> 12 4.754642e-02
<MEAN> 39
 -3.292013e+00 1.376296e+00 5.516937e+00 1.108472e+00 2.922491e+00 2.142372e-01 -9.796510e-01 -3.687581e+00 -1.138419e+00 -3.073178e+00 -1.477211e+00 -1.026905e+00 -5.898522e-01 -8.645518e-01 -1.515856e+00 1.792555e-01 -2.144498e+00 -5.025892e-01 -5.542567e-01 -6.536747e-01 1.192285e+00 1.093691e+00 3.773099e-01 4.495988e-01 3.724509e-01 3.214234e+00 1.166091e+00 -3.842673e-01 -7.241154e-02 -4.964166e-01 -1.261769e+00 -3.774156e-01 -3.413219e-01 2.559198e-01 -1.742705e-01 4.029585e-01 8.651774e-03 2.359639e-01 6.596694e-01
<VARIANCE> 39
 2.538610e+01 3.306198e+01 3.620025e+01 4.369508e+01 4.737482e+01 3.699471e+01 4.523367e+01 3.910561e+01 4.025413e+01 2.924494e+01 2.890067e+01 2.326893e+01 2.412558e+01 2.532582e+00 3.862378e+00 3.306836e+00 4.027427e+00 3.274177e+00 4.476935e+00 5.016973e+00 7.793095e+00 7.122127e+00 3.543087e+00 3.315725e+00 2.981647e+00 3.075274e+00 5.958610e-01 6.732198e-01 1.114129e+00 1.340311e+00 1.559604e+00 1.037236e+00 1.489093e+00 1.222840e+00 1.217229e+00 1.109365e+00 1.086941e+00 8.621907e-01 4.354191e-01
<GCONST> 1.353236e+02
<MIXTURE> 13 5.426471e-02
<MEAN> 39
 7.212086e-01 4.851608e+00 6.627330e+00 6.785919e+00 1.950788e+00 3.162882e+00 -1.404324e-01 -6.243997e+00 -4.964650e+00 -3.693959e+00 -3.974828e+00 -1.887941e+00 -9.250329e+00 -1.475507e+00 -3.193019e+00 -8.735616e-02 -2.622785e+00 -3.056504e-01 1.703793e-01 -7.825313e-01 1.360505e+00 1.460854e+00 4.206099e-01 1.202403e+00 1.181039e+00 4.224515e+00 3.002480e-01 -4.897169e-01 -8.934043e-02 -4.658114e-01 -7.479218e-01 -8.882943e-01 -3.676373e-01 6.455818e-01 4.239933e-01 3.366333e-01 3.831559e-01 1.231868e-01 1.234279e+00
<VARIANCE> 39
 1.933476e+01 3.844384e+01 4.281140e+01 3.530565e+01 4.282133e+01 4.030492e+01 3.586398e+01 4.001163e+01 3.462976e+01 2.167779e+01 2.633423e+01 1.851860e+01 2.343810e+01 2.797390e+00 3.189348e+00 4.246863e+00 4.923489e+00 5.314543e+00 5.161219e+00 5.582438e+00 6.289854e+00 5.994663e+00 4.041795e+00 4.415040e+00 2.720547e+00 3.530172e+00 4.281111e-01 6.645196e-01 7.028625e-01 7.182836e-01 8.958653e-01 9.719578e-01 1.032079e+00 1.055856e+00 9.946164e-01 6.191141e-01 7.103277e-01 5.247218e-01 4.179405e-01
<GCONST> 1.309930e+02
<MIXTURE> 14 4.097558e-02
<MEAN> 39
 -8.285491e+00 9.155741e-01 3.770126e-01 3.574373e+00 6.850561e+00 4.745610e+00 4.031767e+00 1.457617e+00 3.902769e+00 1.856385e+00 3.796731e+00 1.690635e+00 -1.040072e+01 5.794179e-01 -1.367796e+00 -7.989047e-01 -3.321985e+00 -1.836409e+00 -2.559959e+00 -7.078887e-01 -6.516354e-01 -9.280611e-01 -7.309892e-01 -2.425473e-01 4.763319e-02 7.641945e+00 4.669326e-01 5.365027e-01 3.866998e-01 -5.542358e-02 -7.432728e-01 -8.413768e-01 -4.844046e-01 -1.956606e-01 -2.934003e-01 -2.372374e-01 -4.880831e-01 -1.066320e-01 8.097459e-01
<VARIANCE> 39
 2.596640e+01 3.312243e+01 3.655743e+01 3.982174e+01 2.673515e+01 2.515535e+01 2.242512e+01 1.825670e+01 2.500281e+01 1.558784e+01 2.312934e+01 1.261160e+01 5.135867e+01 2.264224e+00 3.036126e+00 3.316841e+00 3.051634e+00 2.974850e+00 2.771520e+00 2.784518e+00 2.726728e+00 1.884878e+00 2.061053e+00 2.086413e+00 1.384155e+00 3.719017e+00 7.817846e-01 7.145225e-01 7.038507e-01 5.554541e-01 8.545338e-01 5.807673e-01 5.107965e-01 4.851947e-01 6.500381e-01 4.664586e-01 5.036287e-01 3.274983e-01 7.363644e-01
<GCONST> 1.190151e+02
<MIXTURE> 15 4.099065e-02
<MEAN> 39
 -2.047534e+00 1.415568e+01 7.864293e+00 1.382658e+01 8.501765e+00 3.118453e+00 7.766104e-01 -6.327734e+00 -3.932820e+00 -4.007242e+00 -5.043512e+00 -2.137574e+00 -1.980072e+01 -1.927968e+00 -4.530773e+00 -1.728810e+00 -3.846035e+00 -3.412942e-01 1.265755e+00 9.733834e-01 1.132288e+00 1.017341e+00 1.234764e+00 1.399965e+00 8.637930e-01 4.722419e+00 4.226151e-01 -1.542117e+00 -2.953119e-01 -1.306857e+00 -1.439218e+00 -1.151166e+00 -5.027393e-01 7.522609e-01 6.550018e-01 3.557987e-01 3.746949e-01 4.104359e-01 2.739521e+00
<VARIANCE> 39
 6.518375e+00 6.720365e+00 1.150127e+01 1.209455e+01 1.566847e+01 1.815351e+01 2.160056e+01 1.573033e+01 1.749074e+01 1.728280e+01 1.537472e+01 1.287389e+01 5.600050e+00 1.348044e+00 1.709356e+00 2.628543e+00 2.719151e+00 2.608800e+00 3.505693e+00 2.753534e+00 3.187032e+00 2.489021e+00 2.184804e+00 2.046706e+00 1.888505e+00 3.314573e+00 2.930602e-01 4.513034e-01 4.503233e-01 5.275112e-01 3.664362e-01 3.720161e-01 5.832962e-01 3.921796e-01 4.942721e-01 4.170020e-01 3.638147e-01 4.000542e-01 2.721633e-01
<GCONST> 1.042875e+02
<MIXTURE> 16 5.824586e-02
<MEAN> 39
 1.146281e+00 1.366457e+01 8.601548e+00 1.222771e+01 4.760243e+00 -1.439512e+00 -1.597513e+00 -3.705076e+00 -1.476449e+00 -2.633167e+00 -4.797843e+00 -2.821684e+00 -1.685323e+01 -1.533778e+00 -3.372221e+00 -6.496090e-01 -2.866661e+00 -1.659740e-01 8.195643e-01 5.469579e-01 5.001377e-01 -2.668267e-02 2.863936e-01 8.883011e-01 8.696886e-01 4.025984e+00 -1.570683e-01 -1.295603e+00 -2.195291e-01 -1.023607e+00 -8.059082e-01 -2.481032e-01 -1.566592e-01 2.313493e-01 8.513858e-02 1.169951e-01 4.747737e-01 3.823212e-01 2.044785e+00
<VARIANCE> 39
 9.445350e+00 1.190258e+01 1.543745e+01 1.550141e+01 2.364311e+01 2.670476e+01 2.392788e+01 2.697750e+01 1.967809e+01 2.401140e+01 1.920378e+01 2.091962e+01 7.731585e+00 1.775487e+00 3.113669e+00 2.686676e+00 3.984990e+00 3.227646e+00 5.035860e+00 3.602014e+00 3.947683e+00 3.134748e+00 2.307935e+00 2.425787e+00 2.107723e+00 4.116674e+00 4.213518e-01 4.363956e-01 5.042175e-01 3.638537e-01 6.264440e-01 5.821427e-01 5.550182e-01 5.461560e-01 5.380619e-01 5.664438e-01 4.292136e-01 3.745338e-01 3.724967e-01
<GCONST> 1.139486e+02
<MIXTURE> 17 3.551097e-02
<MEAN> 39
 -4.009587e+00 1.041936e+01 6.572005e+00 1.238566e+01 8.780490e+00 5.778031e+00 3.292207e+00 -3.818263e+00 -1.541102e+00 -2.335977e+00 -3.858610e+00 -1.794607e+00 -1.865569e+01 -1.270421e+00 -4.891182e+00 -1.762926e+00 -4.488153e+00 -1.805818e+00 -1.627238e-01 3.018540e-01 1.079273e+00 1.108074e+00 1.136041e+00 1.627077e+00 1.210972e+00 6.829639e+00 7.641188e-01 -5.160896e-01 -6.002684e-02 -7.312989e-01 -1.214589e+00 -1.348968e+00 -9.477664e-01 3.281330e-01 2.583267e-01 1.534727e-01 1.287974e-01 1.524661e-01 1.934297e+00
<VARIANCE> 39
 1.191122e+01 1.821125e+01 1.686797e+01 1.397013e+01 2.020626e+01 1.921528e+01 2.141593e+01 2.116395e+01 1.575242e+01 1.919745e+01 1.637071e+01 1.416683e+01 1.630516e+01 1.552488e+00 2.665293e+00 2.785715e+00 3.168375e+00 2.482855e+00 4.000463e+00 3.426529e+00 2.818412e+00 3.054444e+00 2.303300e+00 2.287559e+00 1.867407e+00 1.732085e+00 2.904653e-01 4.053487e-01 3.818332e-01 3.625816e-01 4.357377e-01 4.283400e-01 5.931360e-01 6.377188e-01 5.852329e-01 3.908654e-01 4.272882e-01 4.483687e-01 3.115214e-01
<GCONST> 1.095994e+02
<STATE> 3
<NUMMIXES> 17
<MIXTURE> 1 4.027668e-02
<MEAN> 39
 -7.801123e+00 -2.474426e+00 5.070834e-01 -2.842373e+00 3.447978e+00 1.717851e+00 2.502685e+00 2.409861e+00 2.870237e+00 1.954772e+00 4.659760e+00 2.441356e+00 2.696969e+00 -2.453642e+00 -1.469204e+00 -1.316395e+00 -1.905932e+00 -1.282761e-01 -3.002042e-01 1.862458e+00 2.314693e+00 1.938292e+00 1.534216e+00 1.696824e+00 1.558742e+00 3.419335e+00 9.431109e-01 1.111956e+00 4.396418e-01 1.015848e+00 -4.335712e-01 -4.129120e-01 -2.805327e-01 -6.615306e-01 -5.714325e-01 -5.899577e-01 -9.154096e-01 -2.258653e-01 -1.144021e+00
<VARIANCE> 39
 2.112105e+01 3.206303e+01 3.514112e+01 4.228751e+01 2.905650e+01 3.107916e+01 3.710752e+01 3.005914e+01 3.014406e+01 2.446775e+01 2.621431e+01 2.434581e+01 2.217869e+01 5.759186e+00 4.153934e+00 3.697127e+00 6.387930e+00 4.302187e+00 4.322013e+00 3.566292e+00 3.442605e+00 2.817119e+00 3.082736e+00 3.214151e+00 3.149709e+00 4.566582e+00 4.260628e-01 5.513626e-01 7.584492e-01 1.230653e+00 7.250953e-01 9.115517e-01 7.821742e-01 8.057060e-01 8.230589e-01 8.120238e-01 6.689695e-01 7.746947e-01 6.826710e-01
<GCONST> 1.294103e+02
<MIXTURE> 2 8.205550e-02
<MEAN> 39
 -6.116002e+00 -5.699075e+00 2.961853e+00 -6.672869e-01 -3.416834e-01 2.847447e+00 3.272443e+00 -2.043648e+00 2.966416e+00 1.430499e+00 -2.094375e-01 4.346939e+00 5.256110e+00 1.759350e+00 -3.677449e+00 -1.185275e+00 -3.628290e+00 -3.170845e+00 -2.011337e+00 -2.507190e+00 2.078397e+00 2.154557e+00 1.220677e+00 1.589675e+00 2.901613e-01 7.495479e+00 1.505495e+00 1.039261e+00 -2.254916e-01 7.980576e-01 -6.527819e-02 -5.998839e-01 -1.084245e+00 3.356484e-01 -1.179975e-01 -1.606319e-01 -3.021029e-01 -1.130047e+00 -1.068246e+00
<VARIANCE> 39
 1.229429e+01 2.619041e+01 1.997229e+01 2.790001e+01 2.915777e+01 4.055622e+01 3.428887e+01 3.749452e+01 2.921460e+01 2.756696e+01 2.281648e+01 1.950963e+01 1.519758e+01 1.764225e+00 2.327219e+00 2.189771e+00 2.330060e+00 2.217216e+00 3.502470e+00 4.475267e+00 3.373267e+00 2.818341e+00 2.297021e+00 2.348015e+00 2.734684e+00 2.203796e+00 2.914320e-01 5.172968e-01 5.151807e-01 6.781821e-01 9.031258e-01 9.990853e-01 9.557124e-01 1.092983e+00 8.487428e-01 8.148087e-01 6.910810e-01 5.965632e-01 5.511180e-01
<GCONST> 1.209902e+02
<MIXTURE> 3 4.698388e-02
<MEAN> 39
 -8.903780e+00 2.837513e+00 -2.493823e+00 -6.246921e-01 3.457480e+00 -6.994019e-01 4.779171e+00 -3.378316e+00 2.921115e+00 1.259911e-01 5.198689e+00 1.089960e+00 5.947176e+00 1.420152e+00 -1.106944e+00 6.548575e-01 -2.907496e+00 -3.385575e+00 -3.217674e+00 -6.722364e-01 6.803560e-01 -7.302268e-02 4.965032e-01 1.800748e-01 1.416401e+00 6.212768e+00 1.505374e+00 1.098907e-01 1.199546e+00 3.841284e-01 -8.760586e-01 -3.049505e-01 -1.027225e+00 4.144158e-01 -5.742876e-01 -2.215305e-01 -9.931111e-01 -8.643799e-02 -1.345466e+00
<VARIANCE> 39
 1.640385e+01 2.007164e+01 2.445950e+01 2.768163e+01 2.646146e+01 3.012361e+01 2.502601e+01 2.678917e+01 3.273622e+01 3.176654e+01 2.717198e+01 2.025459e+01 1.288692e+01 2.592128e+00 3.688284e+00 3.739221e+00 3.376085e+00 3.094862e+00 3.145675e+00 4.141295e+00 4.188400e+00 3.688801e+00 4.029774e+00 3.309765e+00 2.352352e+00 5.412434e+00 4.159009e-01 5.231221e-01 6.084704e-01 8.887396e-01 7.958075e-01 8.283758e-01 7.732319e-01 8.402672e-01 8.775967e-01 9.872901e-01 7.671078e-01 6.671297e-01 4.667960e-01
<GCONST> 1.247937e+02
<MIXTURE> 4 7.273490e-02
<MEAN> 39
 7.485804e-01 -1.939789e+00 5.172442e+00 -5.052590e-01 -3.356659e+00 -4.084422e+00 -3.552957e+00 -6.686853e-01 1.657176e+00 -1.977390e+00 5.723511e-01 2.370855e+00 5.693023e+00 9.356632e-01 -3.054846e+00 -2.405171e-01 -3.180707e+00 -2.334048e+00 -1.266541e+00 -1.676219e+00 2.986256e+00 1.653129e+00 1.181664e+00 1.213457e+00 9.192210e-01 4.660101e+00 7.146453e-01 5.583715e-01 -2.421686e-01 4.908828e-01 -7.114068e-02 7.387783e-02 1.256023e-01 -2.100698e-01 -3.868285e-01 2.885740e-01 -5.310127e-01 -5.569034e-01 -8.708349e-01
<VARIANCE> 39
 1.294234e+01 1.953920e+01 2.432844e+01 3.454527e+01 3.383966e+01 4.072351e+01 3.205447e+01 3.738582e+01 3.702259e+01 2.588904e+01 2.430618e+01 2.152649e+01 1.534214e+01 1.577811e+00 2.941764e+00 3.460082e+00 4.703621e+00 5.268963e+00 4.970694e+00 7.249361e+00 5.248223e+00 5.486449e+00 5.061350e+00 4.553309e+00 2.938502e+00 3.894856e+00 2.215793e-01 4.369536e-01 4.188510e-01 7.429521e-01 1.016399e+00 8.501529e-01 9.215605e-01 1.063307e+00 9.976358e-01 7.182316e-01 8.015394e-01 6.184603e-01 3.638574e-01
<GCONST> 1.269087e+02
<MIXTURE> 5 4.699651e-02
<MEAN> 39
 -1.058540e+01 6.624095e-01 1.415046e+00 -5.405105e+00 7.779437e+00 -7.999581e-01 3.701574e+00 3.354548e+00 -2.404237e+00 2.927525e+00 -9.650675e-01 3.050369e+00 4.554544e+00 2.476089e+00 -6.507480e-01 8.532237e-01 -1.297629e+00 -2.562971e+00 -2.845465e+00 -2.276412e+00 2.872156e-02 7.051616e-01 -4.003491e-01 -3.025299e-01 -5.187971e-03 6.487786e+00 1.408082e+00 1.692345e-01 1.634613e-01 1.121796e+00 -1.155214e+00 1.988208e-01 -9.828035e-01 -5.597357e-01 5.898647e-01 -2.638872e-01 1.843473e-01 -5.311641e-01 -1.261964e+00
<VARIANCE> 39
 1.326225e+01 2.085612e+01 2.416567e+01 2.160034e+01 2.285149e+01 3.182681e+01 3.654435e+01 3.040528e+01 2.743477e+01 2.245197e+01 2.269318e+01 2.231738e+01 2.369377e+01 3.087332e+00 2.644460e+00 2.853362e+00 3.567992e+00 3.736305e+00 2.978758e+00 3.598978e+00 4.049266e+00 4.273273e+00 2.390298e+00 2.638826e+00 2.096498e+00 6.044777e+00 2.892909e-01 4.333887e-01 7.221316e-01 6.396790e-01 5.547933e-01 8.388306e-01 9.251325e-01 7.863427e-01 7.291961e-01 5.160550e-01 6.466279e-01 5.906255e-01 7.300583e-01
<GCONST> 1.221320e+02
<MIXTURE> 6 5.211789e-02
<MEAN> 39
 -5.444585e+00 9.673703e-01 8.231297e+00 -8.776720e-01 1.972814e+00 4.248672e+00 -9.380517e-01 -3.507690e+00 -1.373649e+00 -2.580773e+00 -2.181895e+00 6.880479e-01 -2.965130e-01 -5.938726e-01 -1.743446e+00 8.834671e-01 -1.692089e+00 -1.806646e+00 -9.322449e-01 -3.766403e-01 9.988397e-02 -2.373477e-01 3.396273e-01 1.034805e+00 9.763934e-01 4.105106e+00 1.129303e+00 2.330070e-01 1.654734e-02 7.280495e-01 -9.153243e-01 -1.160206e+00 -1.955281e-01 2.738437e-01 -3.485252e-01 -8.480223e-02 2.179527e-01 -1.272376e-01 -2.253111e-01
<VARIANCE> 39
 1.954937e+01 2.890989e+01 3.305081e+01 3.812327e+01 3.859065e+01 6.876695e+01 4.157249e+01 4.308217e+01 3.428768e+01 2.585015e+01 2.338750e+01 1.900136e+01 2.583508e+01 3.250262e+00 3.347173e+00 2.883671e+00 3.746152e+00 5.134429e+00 4.710891e+00 3.574941e+00 4.224579e+00 4.038336e+00 3.480766e+00 3.076201e+00 2.439717e+00 3.836178e+00 3.997671e-01 6.488702e-01 7.239743e-01 8.874984e-01 1.062506e+00 1.884356e+00 9.897813e-01 1.167361e+00 1.156496e+00 7.482360e-01 6.352930e-01 5.292815e-01 4.176836e-01
<GCONST> 1.302729e+02
<MIXTURE> 7 6.007553e-02
<MEAN> 39
 -4.452417e+00 -8.232919e+00 -2.878827e+00 3.670031e+00 -1.015982e+00 8.277720e-01 3.774878e+00 -1.019565e+00 6.684433e-01 -1.466042e-01 1.690211e-01 2.396011e+00 1.449456e+00 -1.300169e+00 -1.854868e+00 -7.358204e-01 -1.808187e+00 -1.239756e+00 -1.055005e+00 1.770134e-01 1.061250e+00 1.137320e+00 7.153475e-01 9.376953e-01 9.544916e-01 4.450600e+00 6.321370e-01 1.881907e+00 7.745540e-01 4.638514e-01 4.750752e-01 -3.760035e-01 -8.605160e-01 -3.192670e-01 -8.432403e-02 -1.662772e-01 -3.042295e-01 -3.395305e-01 -1.056832e+00
<VARIANCE> 39
 3.445847e+01 2.641473e+01 4.326037e+01 4.653109e+01 3.647583e+01 3.268405e+01 3.128386e+01 2.828044e+01 2.571439e+01 1.758799e+01 2.329376e+01 1.318270e+01 1.863109e+01 4.365503e+00 5.124585e+00 3.690226e+00 3.696336e+00 3.247233e+00 3.363464e+00 3.532881e+00 3.330544e+00 3.288054e+00 2.382292e+00 2.334301e+00 1.944417e+00 3.841956e+00 9.063672e-01 6.606267e-01 8.312252e-01 1.033412e+00 8.594238e-01 8.672572e-01 1.039776e+00 8.921832e-01 7.271386e-01 5.457883e-01 5.763808e-01 3.804383e-01 5.789695e-01
<GCONST> 1.262051e+02
<MIXTURE> 8 5.093527e-02
<MEAN> 39
 -8.619362e+00 1.393781e+00 1.209463e+00 -2.055371e+00 1.914591e+00 1.044345e+00 2.754811e-01 7.035450e-01 3.699579e+00 1.142374e+00 7.758771e+00 1.433645e+00 8.944645e+00 3.498277e+00 -1.484973e+00 2.133620e-01 -3.722228e+00 -3.790369e+00 -4.523522e+00 -1.165959e+00 7.974728e-01 -1.269261e+00 -4.379569e-01 -2.158881e+00 8.193831e-01 6.827746e+00 1.086017e+00 -1.437029e-01 -4.149541e-02 7.782282e-01 -1.532114e-02 -2.385121e-03 1.466689e-02 3.753087e-01 -1.734199e-01 -1.714625e-01 -1.445984e+00 -1.698577e-01 -2.067357e+00
<VARIANCE> 39
 1.305557e+01 2.870104e+01 2.981173e+01 2.446200e+01 3.047686e+01 3.245914e+01 4.380035e+01 2.717427e+01 2.204071e+01 2.912659e+01 1.861680e+01 1.854247e+01 1.121761e+01 1.295473e+00 3.222825e+00 3.161281e+00 3.510162e+00 2.878255e+00 2.659507e+00 3.207328e+00 3.679364e+00 2.661088e+00 3.179008e+00 3.296361e+00 2.133276e+00 4.530139e+00 3.953783e-01 6.465088e-01 8.092318e-01 6.745601e-01 8.896331e-01 9.781618e-01 9.569051e-01 8.394031e-01 6.462036e-01 9.225596e-01 5.486353e-01 5.307717e-01 4.342359e-01
<GCONST> 1.219235e+02
<MIXTURE> 9 1.001776e-01
<MEAN> 39
 -7.826832e+00 -1.013002e+00 3.133222e+00 -4.146970e+00 3.719484e+00 1.974293e+00 1.882801e-02 7.711704e-01 1.429512e+00 -1.089143e+00 6.453512e-01 4.923863e+00 6.041660e+00 4.007208e+00 -1.685266e+00 3.254811e-01 -2.342628e+00 -3.007887e+00 -2.743747e+00 -3.836174e+00 4.166214e-01 7.382106e-01 6.134831e-02 -7.851194e-01 -1.325828e+00 7.724816e+00 8.146937e-01 2.191401e-01 -5.847937e-01 7.686862e-01 -2.582704e-01 3.005131e-01 -2.835008e-01 -1.329250e-01 2.518479e-01 6.861085e-01 -9.910141e-02 -9.356277e-01 -1.687785e+00
<VARIANCE> 39
 1.020340e+01 2.376520e+01 2.496976e+01 2.503859e+01 3.085250e+01 4.424912e+01 4.145112e+01 3.473288e+01 2.841702e+01 2.938550e+01 2.806456e+01 2.335866e+01 2.148650e+01 1.317312e+00 2.404187e+00 2.654457e+00 3.057834e+00 2.789713e+00 3.442488e+00 3.107347e+00 3.577519e+00 3.231207e+00 3.004747e+00 2.424574e+00 2.631679e+00 2.911234e+00 3.099360e-01 5.210384e-01 6.279877e-01 6.653427e-01 6.806285e-01 1.122022e+00 9.375035e-01 9.240104e-01 8.513074e-01 8.175932e-01 8.141770e-01 6.101791e-01 6.746647e-01
<GCONST> 1.229255e+02
<MIXTURE> 10 7.434700e-02
<MEAN> 39
 -6.317228e+00 -5.708013e+00 5.168089e+00 -1.213341e+00 -6.041380e-01 5.358059e+00 1.328561e+00 -1.099001e+00 4.458108e+00 -5.719396e-01 2.595687e+00 3.706662e+00 5.268880e+00 1.815579e+00 -3.741954e+00 -8.052990e-01 -3.983858e+00 -3.281062e+00 -2.601979e+00 -2.079745e+00 2.225047e+00 1.167215e+00 1.144596e+00 8.507617e-01 3.413064e-01 7.853253e+00 1.471452e+00 9.911122e-01 -3.921283e-01 8.217158e-01 -5.746310e-02 -1.013117e+00 -7.273681e-01 2.554394e-01 -5.478260e-01 5.612629e-02 -8.064331e-01 -9.472087e-01 -1.093858e+00
<VARIANCE> 39
 1.169067e+01 2.696730e+01 2.390528e+01 2.893853e+01 3.424183e+01 5.772904e+01 4.034523e+01 3.477052e+01 3.623779e+01 2.882856e+01 3.971321e+01 1.557986e+01 2.098582e+01 2.072067e+00 2.473509e+00 2.807827e+00 2.515822e+00 2.837829e+00 3.518075e+00 4.477206e+00 3.963927e+00 3.749484e+00 3.330894e+00 3.267332e+00 2.171056e+00 2.285539e+00 2.757267e-01 4.749330e-01 7.116361e-01 7.368313e-01 1.084396e+00 1.357250e+00 1.113009e+00 9.671077e-01 1.056861e+00 7.915928e-01 1.171063e+00 4.631406e-01 6.529945e-01
<GCONST> 1.258706e+02
<MIXTURE> 11 6.954640e-02
<MEAN> 39
 6.409780e-01 -2.405874e+00 6.130590e+00 -7.209287e-01 -3.322581e+00 -3.040390e+00 -3.856095e+00 -1.519473e+00 1.208487e+00 -2.225045e+00 -6.664510e-01 1.461372e+00 5.489697e+00 8.554336e-01 -3.070355e+00 -2.707500e-01 -3.011008e+00 -2.089340e+00 -1.342762e+00 -2.081173e+00 2.786327e+00 1.749315e+00 8.590656e-01 1.189196e+00 5.609968e-01 4.644776e+00 7.218195e-01 5.752130e-01 -3.963764e-01 4.702192e-01 -6.965981e-02 -4.708957e-02 1.037616e-01 -1.693370e-01 -3.896607e-01 3.411913e-01 -2.507895e-01 -4.915569e-01 -7.658421e-01
<VARIANCE> 39
 1.250873e+01 2.128519e+01 2.723665e+01 3.531973e+01 3.394750e+01 4.273253e+01 3.907656e+01 3.434266e+01 4.280258e+01 2.643773e+01 2.659150e+01 2.049709e+01 1.497025e+01 1.835488e+00 2.950184e+00 4.378476e+00 4.597798e+00 5.085798e+00 5.151127e+00 5.951644e+00 5.088746e+00 6.945522e+00 5.677115e+00 5.495024e+00 3.869744e+00 3.854618e+00 2.220913e-01 4.218586e-01 5.024287e-01 7.935197e-01 8.072414e-01 9.706374e-01 1.144036e+00 1.025250e+00 1.175897e+00 6.697490e-01 9.192166e-01 6.260300e-01 3.669975e-01
<GCONST> 1.289338e+02
<MIXTURE> 12 4.990213e-02
<MEAN> 39
 -6.940797e+00 -6.610094e+00 -2.085680e+00 -1.293764e+00 1.306485e+00 1.190079e+00 2.476680e+00 -1.014025e+00 7.466580e-01 -1.262551e-01 1.015930e+00 1.866883e+00 1.172641e+00 -6.387509e-01 -1.166622e+00 -2.914759e-01 -2.488473e+00 -1.512005e+00 -2.051597e+00 -3.046963e-01 -1.014537e-01 -1.197768e-01 -3.047273e-01 7.556356e-02 4.175485e-01 5.968088e+00 4.989827e-01 1.522958e+00 8.120520e-01 9.789245e-01 1.368831e-01 -3.511356e-01 -4.054006e-01 -7.424465e-02 -4.060919e-02 -7.792780e-02 -2.642609e-01 -1.815870e-01 -1.025185e+00
<VARIANCE> 39
 2.320677e+01 2.813332e+01 3.640628e+01 4.906771e+01 3.375340e+01 3.016504e+01 2.757460e+01 3.089646e+01 2.558296e+01 1.942339e+01 1.961204e+01 1.205434e+01 2.179381e+01 2.926493e+00 3.317716e+00 3.759729e+00 3.434376e+00 2.977210e+00 3.201036e+00 3.660720e+00 2.531352e+00 2.833983e+00 2.496415e+00 1.950807e+00 1.761494e+00 3.733907e+00 8.397909e-01 5.091185e-01 6.981633e-01 8.918967e-01 8.011156e-01 7.776435e-01 8.519006e-01 7.238896e-01 5.917962e-01 5.210416e-01 3.968385e-01 3.310490e-01 5.248015e-01
<GCONST> 1.217650e+02
<MIXTURE> 13 5.133561e-02
<MEAN> 39
 -4.064334e+00 2.787215e+00 6.930981e+00 -1.201972e+00 1.709663e+00 1.697602e+00 -1.775027e+00 -4.837739e+00 -2.795730e+00 -2.673036e+00 -1.695500e+00 -1.013761e+00 9.549170e-01 -7.308947e-02 -1.190003e+00 8.731233e-01 -2.079466e+00 -2.061264e+00 -5.353925e-01 -4.608000e-01 -4.455957e-01 -5.005273e-01 3.041108e-01 7.792555e-01 9.450992e-01 3.515603e+00 1.010655e+00 5.169297e-02 2.006628e-01 5.149144e-01 -9.761763e-01 -6.966733e-01 -1.007318e-01 2.734064e-01 -1.649377e-01 -3.314388e-02 6.971522e-02 1.028323e-01 -3.280048e-01
<VARIANCE> 39
 2.732887e+01 2.657355e+01 3.622962e+01 4.007766e+01 4.479834e+01 5.645693e+01 4.615768e+01 3.751342e+01 2.941104e+01 2.577313e+01 2.332069e+01 2.060309e+01 2.401174e+01 3.808697e+00 4.288066e+00 3.517079e+00 4.677177e+00 5.332012e+00 4.840326e+00 4.449935e+00 4.165110e+00 3.878641e+00 3.754075e+00 3.879836e+00 2.277377e+00 4.083447e+00 4.633192e-01 5.619048e-01 7.214943e-01 1.026807e+00 1.202339e+00 1.441444e+00 1.110541e+00 9.463826e-01 9.209509e-01 7.582432e-01 6.103895e-01 5.193134e-01 4.121722e-01
<GCONST> 1.314097e+02
<MIXTURE> 14 5.771836e-02
<MEAN> 39
 -1.021341e+01 2.433489e+00 -4.272918e+00 2.563198e-01 3.699006e+00 9.498196e-01 5.536928e+00 -2.054273e+00 4.983697e+00 1.202546e+00 5.609518e+00 9.575469e-01 5.692440e+00 1.749614e+00 3.209849e-01 9.960908e-01 -2.886350e+00 -3.537880e+00 -3.722639e+00 -1.112516e+00 -1.224177e+00 -1.555770e+00 -5.920680e-01 -7.766685e-01 2.029714e-01 6.366883e+00 1.328483e+00 5.676803e-02 1.342751e+00 2.287511e-01 -7.588520e-01 -4.170102e-01 -9.799980e-01 2.220928e-01 -7.370473e-01 -7.069074e-02 -7.693629e-01 3.321415e-02 -1.516449e+00
<VARIANCE> 39
 1.488188e+01 2.235647e+01 2.354351e+01 2.489227e+01 2.614905e+01 2.516575e+01 2.792631e+01 2.520781e+01 2.940827e+01 2.631767e+01 1.841436e+01 1.906188e+01 1.708061e+01 2.359419e+00 2.791443e+00 3.884912e+00 3.168205e+00 3.041478e+00 2.825152e+00 2.985150e+00 3.782696e+00 2.997409e+00 3.202624e+00 2.371129e+00 2.342367e+00 6.840159e+00 3.658143e-01 5.668878e-01 5.718703e-01 7.175220e-01 6.575804e-01 7.197238e-01 7.882650e-01 8.727965e-01 7.772816e-01 6.912874e-01 5.956677e-01 5.901769e-01 6.142699e-01
<GCONST> 1.213835e+02
<MIXTURE> 15 3.136799e-02
<MEAN> 39
 -1.005912e+01 2.479110e+00 1.415990e+00 -2.320112e+00 3.268331e+00 1.696917e+00 1.811649e+00 1.074940e+00 4.389180e+00 3.064000e+00 6.830296e+00 6.346115e-01 8.204556e+00 3.249135e+00 -9.684613e-01 2.413304e-01 -3.561416e+00 -4.410672e+00 -4.356369e+00 -1.409705e+00 -3.430885e-01 -2.243090e+00 -1.346567e+00 -2.136081e+00 1.277385e-01 6.259849e+00 1.267253e+00 -2.741801e-01 5.322654e-02 7.642812e-01 -3.554321e-01 -2.264831e-01 -1.909661e-01 2.380110e-01 -4.957806e-01 -4.376166e-01 -1.175734e+00 -2.981131e-02 -2.027730e+00
<VARIANCE> 39
 1.566265e+01 3.121070e+01 3.972079e+01 3.478685e+01 3.531490e+01 4.228655e+01 3.474921e+01 2.657610e+01 2.346065e+01 3.170370e+01 1.905403e+01 2.014795e+01 1.275489e+01 1.520668e+00 3.732826e+00 3.627787e+00 4.021488e+00 2.540034e+00 2.879633e+00 2.224206e+00 4.758579e+00 2.247188e+00 3.257822e+00 2.795425e+00 2.023778e+00 6.468264e+00 5.094432e-01 7.330891e-01 1.180156e+00 8.758199e-01 9.745387e-01 1.386947e+00 7.877779e-01 7.952453e-01 6.922700e-01 8.589491e-01 6.318057e-01 6.414214e-01 4.690062e-01
<GCONST> 1.254034e+02
<MIXTURE> 16 5.747071e-02
<MEAN> 39
 -8.083185e+00 -2.823679e+00 1.962211e+00 -5.363617e+00 4.215710e+00 2.271344e+00 1.262786e+00 3.598229e+00 3.003064e+00 1.934278e+00 4.921264e+00 1.553805e+00 4.419477e+00 -4.367101e-01 -1.168416e+00 -2.143673e-01 -2.236295e+00 -1.247341e+00 -1.467209e+00 6.373926e-01 9.898050e-01 6.559697e-01 6.740504e-01 2.918809e-01 7.275652e-01 4.498332e+00 1.374377e+00 1.072791e+00 4.195742e-01 1.245022e+00 -8.761446e-01 -7.475771e-01 -3.125249e-01 -9.765522e-01 -7.546790e-01 -5.290067e-01 -9.849887e-01 -2.178692e-01 -1.308549e+00
<VARIANCE> 39
 2.048980e+01 2.040014e+01 2.280176e+01 2.748221e+01 3.412155e+01 3.315942e+01 3.587862e+01 2.828839e+01 3.586064e+01 3.520187e+01 2.663675e+01 2.354721e+01 1.727202e+01 3.789391e+00 2.400036e+00 3.502608e+00 4.390292e+00 4.640926e+00 3.257575e+00 3.470093e+00 3.248026e+00 2.973851e+00 2.568936e+00 2.955519e+00 2.450745e+00 6.425673e+00 5.935662e-01 4.928325e-01 7.170115e-01 8.450419e-01 1.246549e+00 1.095109e+00 9.612305e-01 8.726597e-01 9.800506e-01 1.077873e+00 7.703266e-01 7.749841e-01 5.605193e-01
<GCONST> 1.278558e+02
<MIXTURE> 17 5.594936e-02
<MEAN> 39
 -1.046455e+01 3.897968e-01 1.488712e-01 -5.447291e+00 6.956151e+00 -1.474031e+00 3.541842e+00 1.523158e+00 -2.572878e+00 2.837971e+00 -6.848342e-01 2.808439e+00 5.004248e+00 2.024567e+00 -5.001551e-01 8.961024e-01 -1.848116e+00 -2.621477e+00 -3.301377e+00 -1.958877e+00 -5.249032e-01 -2.480035e-01 -6.551547e-01 -5.223714e-01 1.474681e-01 6.776328e+00 1.363652e+00 2.847751e-01 5.470285e-01 1.236336e+00 -1.114158e+00 1.386681e-01 -9.307474e-01 -2.309213e-01 5.290913e-01 -3.987902e-01 1.553544e-01 -3.692471e-01 -1.368296e+00
<VARIANCE> 39
 1.716753e+01 2.287055e+01 2.795901e+01 1.894735e+01 2.278202e+01 3.277265e+01 3.004615e+01 2.640350e+01 2.267670e+01 2.327165e+01 1.583518e+01 1.843481e+01 2.031375e+01 2.991667e+00 2.779102e+00 3.046171e+00 3.860739e+00 3.160901e+00 2.375426e+00 2.850597e+00 2.542073e+00 3.616076e+00 2.499475e+00 2.337657e+00 1.995344e+00 4.935246e+00 3.554605e-01 5.295610e-01 7.482660e-01 6.390873e-01 6.161872e-01 8.228233e-01 8.070936e-01 7.108437e-01 6.785576e-01 5.707085e-01 4.387748e-01 4.725583e-01 6.709715e-01
<GCONST> 1.195241e+02
<STATE> 4
<NUMMIXES> 17
<MIXTURE> 1 3.554671e-02
<MEAN> 39
 -9.410538e+00 2.445775e-01 -5.697703e-01 -2.267993e+00 2.871402e+00 -4.807484e-01 2.381469e+00 1.460526e+00 1.875247e+00 6.063788e-01 1.973503e+00 3.584150e+00 1.356641e+00 -1.297156e+00 1.289589e+00 -1.057799e-01 5.594013e-01 3.534283e-01 -4.699794e-01 7.276734e-01 1.218279e+00 8.098224e-01 7.138562e-01 1.686024e-01 6.823659e-01 2.322158e-01 6.801168e-01 9.484903e-01 4.902296e-01 1.346073e+00 2.436408e-01 2.686181e-01 -1.091491e-01 -3.077752e-01 -1.948428e-01 -2.317529e-01 -4.632064e-01 -4.209121e-01 -1.827504e+00
<VARIANCE> 39
 3.765768e+01 4.251254e+01 4.609760e+01 3.607536e+01 4.559075e+01 3.252205e+01 2.975054e+01 3.024747e+01 3.092244e+01 2.297799e+01 2.286611e+01 2.094226e+01 2.403036e+01 4.666937e+00 4.396710e+00 3.879971e+00 4.290722e+00 3.187515e+00 3.848685e+00 3.036308e+00 2.796479e+00 2.686912e+00 1.995729e+00 2.759192e+00 3.066446e+00 6.806839e+00 6.658797e-01 8.015462e-01 7.674816e-01 7.642130e-01 9.508114e-01 7.230911e-01 6.778741e-01 5.486224e-01 6.130682e-01 5.525054e-01 5.045114e-01 4.402464e-01 7.121411e-01
<GCONST> 1.272531e+02
<MIXTURE> 2 7.587198e-02
<MEAN> 39
 3.475465e+00 -2.120335e+00 2.281317e+00 -7.963256e-01 -3.580641e+00 -3.208763e+00 -7.935957e+00 -1.646834e+00 6.841836e+00 2.827887e+00 -1.073928e+00 -1.442113e+00 8.352249e+00 3.307915e+00 -7.303488e-01 -1.994085e+00 -1.482353e+00 -1.225834e+00 -1.002002e+00 -2.804743e+00 7.155375e-01 1.660987e+00 1.292812e+00 8.523880e-01 -1.530136e+00 2.469585e+00 6.533777e-02 6.611661e-01 -3.989477e-01 5.050943e-01 8.026707e-01 7.588726e-01 8.868044e-01 -1.614832e-01 -9.020031e-01 -2.173185e-01 -2.290501e-02 -2.099386e-01 -1.834582e+00
<VARIANCE> 39
 1.358978e+01 1.594107e+01 2.030809e+01 2.535841e+01 2.505901e+01 2.400715e+01 3.142251e+01 2.833819e+01 2.027200e+01 2.055591e+01 1.619941e+01 1.755005e+01 1.067049e+01 2.535718e+00 3.476789e+00 3.517627e+00 5.494043e+00 4.207965e+00 7.018876e+00 7.557561e+00 8.515327e+00 6.242047e+00 5.341043e+00 5.169795e+00 4.123656e+00 3.295608e+00 3.185900e-01 5.149407e-01 4.188268e-01 5.442470e-01 5.750226e-01 5.958448e-01 7.060561e-01 7.081606e-01 7.117645e-01 6.119263e-01 4.582491e-01 5.453628e-01 3.474636e-01
<GCONST> 1.226623e+02
<MIXTURE> 3 6.098111e-02
<MEAN> 39
 2.135888e+00 -1.402417e-01 7.678151e+00 -4.392950e-01 -5.956485e+00 -8.659367e+00 -4.967978e+00 1.541605e+00 -2.720790e-02 -2.306778e+00 3.229084e-01 3.345637e+00 7.556777e+00 2.659534e+00 -1.369898e+00 7.771209e-01 -3.772186e-01 -3.512738e+00 -2.145173e+00 -2.040975e+00 1.773254e+00 5.844696e-01 1.933061e-01 2.579031e-01 2.126228e-01 2.243511e+00 1.166594e-01 4.051051e-01 -3.183350e-01 7.470828e-01 5.345507e-01 8.287484e-01 4.226705e-01 -2.912210e-01 -1.198901e-01 1.342824e-01 -4.122876e-01 -6.590903e-01 -1.625061e+00
<VARIANCE> 39
 1.213076e+01 1.904963e+01 2.251768e+01 2.054151e+01 2.901371e+01 1.919923e+01 2.318073e+01 2.028884e+01 2.395049e+01 1.691227e+01 1.639453e+01 1.230900e+01 1.510182e+01 2.552751e+00 2.572699e+00 3.485815e+00 3.774704e+00 4.767787e+00 4.876346e+00 6.082089e+00 4.659452e+00 4.798893e+00 3.866742e+00 4.562417e+00 3.339053e+00 3.087566e+00 2.287845e-01 4.805617e-01 3.312780e-01 3.955260e-01 5.464945e-01 5.488049e-01 4.677917e-01 5.552562e-01 6.153943e-01 4.605508e-01 4.263715e-01 3.301477e-01 3.315423e-01
<GCONST> 1.163624e+02
<MIXTURE> 4 6.132977e-02
<MEAN> 39
 -5.425251e+00 5.924330e+00 3.361393e+00 5.987408e-01 2.449960e+00 -6.489396e+00 5.567909e-01 -1.422574e+00 -5.519725e-01 1.032535e+00 -2.718831e+00 2.816131e+00 5.210359e+00 4.029602e+00 -1.452881e-01 9.497564e-01 6.511592e-01 -3.126049e+00 -1.611819e+00 -3.326164e+00 -2.486942e-01 8.676715e-01 -4.112407e-01 4.914942e-02 -8.380440e-01 1.970445e+00 7.361464e-01 -5.369818e-01 -9.763693e-02 4.428757e-01 -1.622106e-01 1.039802e+00 -3.512747e-01 7.321203e-02 2.379832e-01 -7.922159e-02 3.832561e-01 -4.702608e-01 -1.583259e+00
<VARIANCE> 39
 2.225552e+01 1.900526e+01 3.026260e+01 2.856779e+01 2.294300e+01 2.546374e+01 2.878731e+01 2.231206e+01 2.500490e+01 1.933533e+01 1.921598e+01 1.850077e+01 1.556900e+01 2.443969e+00 2.961609e+00 6.543753e+00 3.994788e+00 5.787389e+00 4.940166e+00 4.822639e+00 4.140183e+00 4.858062e+00 4.043447e+00 3.078244e+00 3.591220e+00 2.818322e+00 5.735307e-01 4.342718e-01 6.495305e-01 6.629388e-01 4.964708e-01 6.401171e-01 6.372975e-01 6.467099e-01 5.164974e-01 4.842902e-01 4.207087e-01 4.299244e-01 5.722710e-01
<GCONST> 1.222094e+02
<MIXTURE> 5 4.774714e-02
<MEAN> 39
 7.055328e+00 -8.152554e+00 3.979687e+00 -2.543506e+00 -8.397549e+00 -1.820630e+00 -1.481604e+01 7.770439e+00 3.954175e+00 2.582605e+00 9.352332e-01 -2.128110e+00 1.093584e+01 2.282184e+00 -1.718615e+00 -1.616528e+00 -1.323186e+00 -8.802232e-01 4.001916e-01 -2.201461e+00 2.614276e+00 5.623152e-01 1.365351e+00 3.428748e-01 -1.774207e+00 1.492230e+00 -5.018350e-01 8.833747e-01 -5.525231e-01 6.233342e-01 1.265775e+00 5.895283e-01 1.844362e+00 -1.098936e+00 -4.955528e-01 -2.893561e-01 -3.371219e-01 -7.594080e-02 -1.546161e+00
<VARIANCE> 39
